<?xml version="1.0"?>
<MethodSetup Method="BDT::BDT">
  <Variables NVar="29">
    <Variable Expression="f0" Internal="f0" Label="f0" Max="0.0e+00" Min="0.0e+00" Title="f0" Type="F" Unit="" VarIndex="0"/>
    <Variable Expression="f1" Internal="f1" Label="f1" Max="0.0e+00" Min="0.0e+00" Title="f1" Type="F" Unit="" VarIndex="1"/>
    <Variable Expression="f2" Internal="f2" Label="f2" Max="0.0e+00" Min="0.0e+00" Title="f2" Type="F" Unit="" VarIndex="2"/>
    <Variable Expression="f3" Internal="f3" Label="f3" Max="0.0e+00" Min="0.0e+00" Title="f3" Type="F" Unit="" VarIndex="3"/>
    <Variable Expression="f4" Internal="f4" Label="f4" Max="0.0e+00" Min="0.0e+00" Title="f4" Type="F" Unit="" VarIndex="4"/>
    <Variable Expression="f5" Internal="f5" Label="f5" Max="0.0e+00" Min="0.0e+00" Title="f5" Type="F" Unit="" VarIndex="5"/>
    <Variable Expression="f6" Internal="f6" Label="f6" Max="0.0e+00" Min="0.0e+00" Title="f6" Type="F" Unit="" VarIndex="6"/>
    <Variable Expression="f7" Internal="f7" Label="f7" Max="0.0e+00" Min="0.0e+00" Title="f7" Type="F" Unit="" VarIndex="7"/>
    <Variable Expression="f8" Internal="f8" Label="f8" Max="0.0e+00" Min="0.0e+00" Title="f8" Type="F" Unit="" VarIndex="8"/>
    <Variable Expression="f9" Internal="f9" Label="f9" Max="0.0e+00" Min="0.0e+00" Title="f9" Type="F" Unit="" VarIndex="9"/>
    <Variable Expression="f10" Internal="f10" Label="f10" Max="0.0e+00" Min="0.0e+00" Title="f10" Type="F" Unit="" VarIndex="10"/>
    <Variable Expression="f11" Internal="f11" Label="f11" Max="0.0e+00" Min="0.0e+00" Title="f11" Type="F" Unit="" VarIndex="11"/>
    <Variable Expression="f12" Internal="f12" Label="f12" Max="0.0e+00" Min="0.0e+00" Title="f12" Type="F" Unit="" VarIndex="12"/>
    <Variable Expression="f13" Internal="f13" Label="f13" Max="0.0e+00" Min="0.0e+00" Title="f13" Type="F" Unit="" VarIndex="13"/>
    <Variable Expression="f14" Internal="f14" Label="f14" Max="0.0e+00" Min="0.0e+00" Title="f14" Type="F" Unit="" VarIndex="14"/>
    <Variable Expression="f15" Internal="f15" Label="f15" Max="0.0e+00" Min="0.0e+00" Title="f15" Type="F" Unit="" VarIndex="15"/>
    <Variable Expression="f16" Internal="f16" Label="f16" Max="0.0e+00" Min="0.0e+00" Title="f16" Type="F" Unit="" VarIndex="16"/>
    <Variable Expression="f17" Internal="f17" Label="f17" Max="0.0e+00" Min="0.0e+00" Title="f17" Type="F" Unit="" VarIndex="17"/>
    <Variable Expression="f18" Internal="f18" Label="f18" Max="0.0e+00" Min="0.0e+00" Title="f18" Type="F" Unit="" VarIndex="18"/>
    <Variable Expression="f19" Internal="f19" Label="f19" Max="0.0e+00" Min="0.0e+00" Title="f19" Type="F" Unit="" VarIndex="19"/>
    <Variable Expression="f20" Internal="f20" Label="f20" Max="0.0e+00" Min="0.0e+00" Title="f20" Type="F" Unit="" VarIndex="20"/>
    <Variable Expression="f21" Internal="f21" Label="f21" Max="0.0e+00" Min="0.0e+00" Title="f21" Type="F" Unit="" VarIndex="21"/>
    <Variable Expression="f22" Internal="f22" Label="f22" Max="0.0e+00" Min="0.0e+00" Title="f22" Type="F" Unit="" VarIndex="22"/>
    <Variable Expression="f23" Internal="f23" Label="f23" Max="0.0e+00" Min="0.0e+00" Title="f23" Type="F" Unit="" VarIndex="23"/>
    <Variable Expression="f24" Internal="f24" Label="f24" Max="0.0e+00" Min="0.0e+00" Title="f24" Type="F" Unit="" VarIndex="24"/>
    <Variable Expression="f25" Internal="f25" Label="f25" Max="0.0e+00" Min="0.0e+00" Title="f25" Type="F" Unit="" VarIndex="25"/>
    <Variable Expression="f26" Internal="f26" Label="f26" Max="0.0e+00" Min="0.0e+00" Title="f26" Type="F" Unit="" VarIndex="26"/>
    <Variable Expression="f27" Internal="f27" Label="f27" Max="0.0e+00" Min="0.0e+00" Title="f27" Type="F" Unit="" VarIndex="27"/>
    <Variable Expression="f28" Internal="f28" Label="f28" Max="0.0e+00" Min="0.0e+00" Title="f28" Type="F" Unit="" VarIndex="28"/>
  </Variables>
  <GeneralInfo>
    <Info name="Creator" value="xgboost2TMVA"/>
    <Info name="AnalysisType" value="Classification"/>
  </GeneralInfo>
  <Options>
    <Option modified="No" name="NodePurityLimit">5.00e-01</Option>
    <Option modified="Yes" name="BoostType">Grad</Option>
  </Options>
  <Weights AnalysisType="1" NTrees="500">
    <BinaryTree boostWeight="1.0e+00" itree="0" type="DecisionTree">
      <Node Cut="-0.728722334" IVar="27" NCoef="0" cType="1" depth="0" nType="0" pos="s" purity="0.0e+00" res="0.0e+00" rms="0.0e+00">
        <Node Cut="0.505746424" IVar="16" NCoef="0" cType="1" depth="1" nType="0" pos="l" purity="0.0e+00" res="0.0e+00" rms="0.0e+00">
          <Node Cut="0.0e+00" IVar="-1" NCoef="0" cType="1" depth="2" nType="-99" pos="l" purity="0.0e+00" res="0.158536822" rms="0.0e+00"/>
          <Node Cut="0.0e+00" IVar="-1" NCoef="0" cType="1" depth="2" nType="-99" pos="r" purity="0.0e+00" res="0.0934280232" rms="0.0e+00"/>
        </Node>
        <Node Cut="-0.189467296" IVar="1" NCoef="0" cType="1" depth="1" nType="0" pos="r" purity="0.0e+00" res="0.0e+00" rms="0.0e+00">
          <Node Cut="0.0e+00" IVar="-1" NCoef="0" cType="1" depth="2" nType="-99" pos="l" purity="0.0e+00" res="-0.02483893" rms="0.0e+00"/>
          <Node Cut="0.0e+00" IVar="-1" NCoef="0" cType="1" depth="2" nType="-99" pos="r" purity="0.0e+00" res="-0.0654944405" rms="0.0e+00"/>
        </Node>
      </Node>
    </BinaryTree>
    <BinaryTree boostWeight="1.0e+00" itree="1" type="DecisionTree">
      <Node Cut="-0.727959633" IVar="27" NCoef="0" cType="1" depth="0" nType="0" pos="s" purity="0.0e+00" res="0.0e+00" rms="0.0e+00">
        <Node Cut="0.159129009" IVar="16" NCoef="0" cType="1" depth="1" nType="0" pos="l" purity="0.0e+00" res="0.0e+00" rms="0.0e+00">
          <Node Cut="0.0e+00" IVar="-1" NCoef="0" cType="1" depth="2" nType="-99" pos="l" purity="0.0e+00" res="0.133611724" rms="0.0e+00"/>
          <Node Cut="0.0e+00" IVar="-1" NCoef="0" cType="1" depth="2" nType="-99" pos="r" purity="0.0e+00" res="0.0686753988" rms="0.0e+00"/>
        </Node>
        <Node Cut="-0.273682773" IVar="2" NCoef="0" cType="1" depth="1" nType="0" pos="r" purity="0.0e+00" res="0.0e+00" rms="0.0e+00">
          <Node Cut="-0.335893869" IVar="1" NCoef="0" cType="1" depth="2" nType="0" pos="l" purity="0.0e+00" res="0.0e+00" rms="0.0e+00">
            <Node Cut="0.0e+00" IVar="-1" NCoef="0" cType="1" depth="3" nType="-99" pos="l" purity="0.0e+00" res="-0.0349945612" rms="0.0e+00"/>
            <Node Cut="0.0e+00" IVar="-1" NCoef="0" cType="1" depth="3" nType="-99" pos="r" purity="0.0e+00" res="0.00683798734" rms="0.0e+00"/>
          </Node>
          <Node Cut="0.0e+00" IVar="-1" NCoef="0" cType="1" depth="2" nType="-99" pos="r" purity="0.0e+00" res="-0.0632983521" rms="0.0e+00"/>
        </Node>
      </Node>
    </BinaryTree>
    <BinaryTree boostWeight="1.0e+00" itree="2" type="DecisionTree">
      <Node Cut="-0.727005124" IVar="27" NCoef="0" cType="1" depth="0" nType="0" pos="s" purity="0.0e+00" res="0.0e+00" rms="0.0e+00">
        <Node Cut="0.285788268" IVar="16" NCoef="0" cType="1" depth="1" nType="0" pos="l" purity="0.0e+00" res="0.0e+00" rms="0.0e+00">
          <Node Cut="0.0e+00" IVar="-1" NCoef="0" cType="1" depth="2" nType="-99" pos="l" purity="0.0e+00" res="0.11747992" rms="0.0e+00"/>
          <Node Cut="0.0e+00" IVar="-1" NCoef="0" cType="1" depth="2" nType="-99" pos="r" purity="0.0e+00" res="0.0648035184" rms="0.0e+00"/>
        </Node>
        <Node Cut="-0.274889708" IVar="2" NCoef="0" cType="1" depth="1" nType="0" pos="r" purity="0.0e+00" res="0.0e+00" rms="0.0e+00">
          <Node Cut="-0.418866396" IVar="0" NCoef="0" cType="1" depth="2" nType="0" pos="l" purity="0.0e+00" res="0.0e+00" rms="0.0e+00">
            <Node Cut="0.0e+00" IVar="-1" NCoef="0" cType="1" depth="3" nType="-99" pos="l" purity="0.0e+00" res="-0.0360176079" rms="0.0e+00"/>
            <Node Cut="0.0e+00" IVar="-1" NCoef="0" cType="1" depth="3" nType="-99" pos="r" purity="0.0e+00" res="0.00691981381" rms="0.0e+00"/>
          </Node>
          <Node Cut="0.0e+00" IVar="-1" NCoef="0" cType="1" depth="2" nType="-99" pos="r" purity="0.0e+00" res="-0.0626657158" rms="0.0e+00"/>
        </Node>
      </Node>
    </BinaryTree>
    <BinaryTree boostWeight="1.0e+00" itree="3" type="DecisionTree">
      <Node Cut="-0.727570415" IVar="27" NCoef="0" cType="1" depth="0" nType="0" pos="s" purity="0.0e+00" res="0.0e+00" rms="0.0e+00">
        <Node Cut="0.437916905" IVar="16" NCoef="0" cType="1" depth="1" nType="0" pos="l" purity="0.0e+00" res="0.0e+00" rms="0.0e+00">
          <Node Cut="0.0e+00" IVar="-1" NCoef="0" cType="1" depth="2" nType="-99" pos="l" purity="0.0e+00" res="0.105100669" rms="0.0e+00"/>
          <Node Cut="0.0e+00" IVar="-1" NCoef="0" cType="1" depth="2" nType="-99" pos="r" purity="0.0e+00" res="0.0583648495" rms="0.0e+00"/>
        </Node>
        <Node Cut="-0.187022313" IVar="1" NCoef="0" cType="1" depth="1" nType="0" pos="r" purity="0.0e+00" res="0.0e+00" rms="0.0e+00">
          <Node Cut="0.0e+00" IVar="-1" NCoef="0" cType="1" depth="2" nType="-99" pos="l" purity="0.0e+00" res="-0.0187358893" rms="0.0e+00"/>
          <Node Cut="0.0e+00" IVar="-1" NCoef="0" cType="1" depth="2" nType="-99" pos="r" purity="0.0e+00" res="-0.0615613721" rms="0.0e+00"/>
        </Node>
      </Node>
    </BinaryTree>
    <BinaryTree boostWeight="1.0e+00" itree="4" type="DecisionTree">
      <Node Cut="-0.727520823" IVar="27" NCoef="0" cType="1" depth="0" nType="0" pos="s" purity="0.0e+00" res="0.0e+00" rms="0.0e+00">
        <Node Cut="0.0e+00" IVar="-1" NCoef="0" cType="1" depth="1" nType="-99" pos="l" purity="0.0e+00" res="0.0824051797" rms="0.0e+00"/>
        <Node Cut="-0.183437645" IVar="1" NCoef="0" cType="1" depth="1" nType="0" pos="r" purity="0.0e+00" res="0.0e+00" rms="0.0e+00">
          <Node Cut="0.0e+00" IVar="-1" NCoef="0" cType="1" depth="2" nType="-99" pos="l" purity="0.0e+00" res="-0.0150634749" rms="0.0e+00"/>
          <Node Cut="0.0e+00" IVar="-1" NCoef="0" cType="1" depth="2" nType="-99" pos="r" purity="0.0e+00" res="-0.060817223" rms="0.0e+00"/>
        </Node>
      </Node>
    </BinaryTree>
    <BinaryTree boostWeight="1.0e+00" itree="5" type="DecisionTree">
      <Node Cut="-0.728716612" IVar="27" NCoef="0" cType="1" depth="0" nType="0" pos="s" purity="0.0e+00" res="0.0e+00" rms="0.0e+00">
        <Node Cut="-0.0553772375" IVar="10" NCoef="0" cType="1" depth="1" nType="0" pos="l" purity="0.0e+00" res="0.0e+00" rms="0.0e+00">
          <Node Cut="0.0e+00" IVar="-1" NCoef="0" cType="1" depth="2" nType="-99" pos="l" purity="0.0e+00" res="0.0407110415" rms="0.0e+00"/>
          <Node Cut="0.0e+00" IVar="-1" NCoef="0" cType="1" depth="2" nType="-99" pos="r" purity="0.0e+00" res="0.0890518576" rms="0.0e+00"/>
        </Node>
        <Node Cut="-0.273682773" IVar="2" NCoef="0" cType="1" depth="1" nType="0" pos="r" purity="0.0e+00" res="0.0e+00" rms="0.0e+00">
          <Node Cut="0.0e+00" IVar="-1" NCoef="0" cType="1" depth="2" nType="-99" pos="l" purity="0.0e+00" res="-0.0227366015" rms="0.0e+00"/>
          <Node Cut="0.0e+00" IVar="-1" NCoef="0" cType="1" depth="2" nType="-99" pos="r" purity="0.0e+00" res="-0.0597598143" rms="0.0e+00"/>
        </Node>
      </Node>
    </BinaryTree>
    <BinaryTree boostWeight="1.0e+00" itree="6" type="DecisionTree">
      <Node Cut="-0.713193893" IVar="27" NCoef="0" cType="1" depth="0" nType="0" pos="s" purity="0.0e+00" res="0.0e+00" rms="0.0e+00">
        <Node Cut="-0.0255990494" IVar="13" NCoef="0" cType="1" depth="1" nType="0" pos="l" purity="0.0e+00" res="0.0e+00" rms="0.0e+00">
          <Node Cut="0.0e+00" IVar="-1" NCoef="0" cType="1" depth="2" nType="-99" pos="l" purity="0.0e+00" res="0.0922848731" rms="0.0e+00"/>
          <Node Cut="0.497412294" IVar="16" NCoef="0" cType="1" depth="2" nType="0" pos="r" purity="0.0e+00" res="0.0e+00" rms="0.0e+00">
            <Node Cut="0.0e+00" IVar="-1" NCoef="0" cType="1" depth="3" nType="-99" pos="l" purity="0.0e+00" res="0.0695579723" rms="0.0e+00"/>
            <Node Cut="0.0e+00" IVar="-1" NCoef="0" cType="1" depth="3" nType="-99" pos="r" purity="0.0e+00" res="0.0132973483" rms="0.0e+00"/>
          </Node>
        </Node>
        <Node Cut="-0.324620306" IVar="2" NCoef="0" cType="1" depth="1" nType="0" pos="r" purity="0.0e+00" res="0.0e+00" rms="0.0e+00">
          <Node Cut="-0.422784388" IVar="0" NCoef="0" cType="1" depth="2" nType="0" pos="l" purity="0.0e+00" res="0.0e+00" rms="0.0e+00">
            <Node Cut="0.0e+00" IVar="-1" NCoef="0" cType="1" depth="3" nType="-99" pos="l" purity="0.0e+00" res="-0.0339769162" rms="0.0e+00"/>
            <Node Cut="0.0e+00" IVar="-1" NCoef="0" cType="1" depth="3" nType="-99" pos="r" purity="0.0e+00" res="0.0184435882" rms="0.0e+00"/>
          </Node>
          <Node Cut="0.0e+00" IVar="-1" NCoef="0" cType="1" depth="2" nType="-99" pos="r" purity="0.0e+00" res="-0.0583576374" rms="0.0e+00"/>
        </Node>
      </Node>
    </BinaryTree>
    <BinaryTree boostWeight="1.0e+00" itree="7" type="DecisionTree">
      <Node Cut="-0.727005124" IVar="27" NCoef="0" cType="1" depth="0" nType="0" pos="s" purity="0.0e+00" res="0.0e+00" rms="0.0e+00">
        <Node Cut="-0.109701388" IVar="7" NCoef="0" cType="1" depth="1" nType="0" pos="l" purity="0.0e+00" res="0.0e+00" rms="0.0e+00">
          <Node Cut="0.0e+00" IVar="-1" NCoef="0" cType="1" depth="2" nType="-99" pos="l" purity="0.0e+00" res="0.0329713263" rms="0.0e+00"/>
          <Node Cut="0.0e+00" IVar="-1" NCoef="0" cType="1" depth="2" nType="-99" pos="r" purity="0.0e+00" res="0.0758836269" rms="0.0e+00"/>
        </Node>
        <Node Cut="-0.282255709" IVar="2" NCoef="0" cType="1" depth="1" nType="0" pos="r" purity="0.0e+00" res="0.0e+00" rms="0.0e+00">
          <Node Cut="-0.422945857" IVar="0" NCoef="0" cType="1" depth="2" nType="0" pos="l" purity="0.0e+00" res="0.0e+00" rms="0.0e+00">
            <Node Cut="0.0e+00" IVar="-1" NCoef="0" cType="1" depth="3" nType="-99" pos="l" purity="0.0e+00" res="-0.0354660228" rms="0.0e+00"/>
            <Node Cut="0.0e+00" IVar="-1" NCoef="0" cType="1" depth="3" nType="-99" pos="r" purity="0.0e+00" res="0.00545779569" rms="0.0e+00"/>
          </Node>
          <Node Cut="0.0e+00" IVar="-1" NCoef="0" cType="1" depth="2" nType="-99" pos="r" purity="0.0e+00" res="-0.0579908602" rms="0.0e+00"/>
        </Node>
      </Node>
    </BinaryTree>
    <BinaryTree boostWeight="1.0e+00" itree="8" type="DecisionTree">
      <Node Cut="-0.719955325" IVar="27" NCoef="0" cType="1" depth="0" nType="0" pos="s" purity="0.0e+00" res="0.0e+00" rms="0.0e+00">
        <Node Cut="0.0347679779" IVar="8" NCoef="0" cType="1" depth="1" nType="0" pos="l" purity="0.0e+00" res="0.0e+00" rms="0.0e+00">
          <Node Cut="0.0e+00" IVar="-1" NCoef="0" cType="1" depth="2" nType="-99" pos="l" purity="0.0e+00" res="0.0417013392" rms="0.0e+00"/>
          <Node Cut="0.0e+00" IVar="-1" NCoef="0" cType="1" depth="2" nType="-99" pos="r" purity="0.0e+00" res="0.079263404" rms="0.0e+00"/>
        </Node>
        <Node Cut="-0.306418985" IVar="2" NCoef="0" cType="1" depth="1" nType="0" pos="r" purity="0.0e+00" res="0.0e+00" rms="0.0e+00">
          <Node Cut="-0.324590981" IVar="1" NCoef="0" cType="1" depth="2" nType="0" pos="l" purity="0.0e+00" res="0.0e+00" rms="0.0e+00">
            <Node Cut="0.0e+00" IVar="-1" NCoef="0" cType="1" depth="3" nType="-99" pos="l" purity="0.0e+00" res="-0.0307560358" rms="0.0e+00"/>
            <Node Cut="0.0e+00" IVar="-1" NCoef="0" cType="1" depth="3" nType="-99" pos="r" purity="0.0e+00" res="0.0100702951" rms="0.0e+00"/>
          </Node>
          <Node Cut="0.0e+00" IVar="-1" NCoef="0" cType="1" depth="2" nType="-99" pos="r" purity="0.0e+00" res="-0.0567313507" rms="0.0e+00"/>
        </Node>
      </Node>
    </BinaryTree>
    <BinaryTree boostWeight="1.0e+00" itree="9" type="DecisionTree">
      <Node Cut="-0.72700268" IVar="27" NCoef="0" cType="1" depth="0" nType="0" pos="s" purity="0.0e+00" res="0.0e+00" rms="0.0e+00">
        <Node Cut="0.540255189" IVar="16" NCoef="0" cType="1" depth="1" nType="0" pos="l" purity="0.0e+00" res="0.0e+00" rms="0.0e+00">
          <Node Cut="0.0e+00" IVar="-1" NCoef="0" cType="1" depth="2" nType="-99" pos="l" purity="0.0e+00" res="0.0652891397" rms="0.0e+00"/>
          <Node Cut="0.0e+00" IVar="-1" NCoef="0" cType="1" depth="2" nType="-99" pos="r" purity="0.0e+00" res="0.0273503549" rms="0.0e+00"/>
        </Node>
        <Node Cut="-0.27928704" IVar="2" NCoef="0" cType="1" depth="1" nType="0" pos="r" purity="0.0e+00" res="0.0e+00" rms="0.0e+00">
          <Node Cut="0.0e+00" IVar="-1" NCoef="0" cType="1" depth="2" nType="-99" pos="l" purity="0.0e+00" res="-0.0116720898" rms="0.0e+00"/>
          <Node Cut="0.0e+00" IVar="-1" NCoef="0" cType="1" depth="2" nType="-99" pos="r" purity="0.0e+00" res="-0.0566442497" rms="0.0e+00"/>
        </Node>
      </Node>
    </BinaryTree>
    <BinaryTree boostWeight="1.0e+00" itree="10" type="DecisionTree">
      <Node Cut="-0.72503382" IVar="27" NCoef="0" cType="1" depth="0" nType="0" pos="s" purity="0.0e+00" res="0.0e+00" rms="0.0e+00">
        <Node Cut="-0.169352978" IVar="15" NCoef="0" cType="1" depth="1" nType="0" pos="l" purity="0.0e+00" res="0.0e+00" rms="0.0e+00">
          <Node Cut="0.0e+00" IVar="-1" NCoef="0" cType="1" depth="2" nType="-99" pos="l" purity="0.0e+00" res="0.0684240386" rms="0.0e+00"/>
          <Node Cut="0.0e+00" IVar="-1" NCoef="0" cType="1" depth="2" nType="-99" pos="r" purity="0.0e+00" res="0.0265145805" rms="0.0e+00"/>
        </Node>
        <Node Cut="-0.2020154" IVar="1" NCoef="0" cType="1" depth="1" nType="0" pos="r" purity="0.0e+00" res="0.0e+00" rms="0.0e+00">
          <Node Cut="0.0e+00" IVar="-1" NCoef="0" cType="1" depth="2" nType="-99" pos="l" purity="0.0e+00" res="-0.0165497866" rms="0.0e+00"/>
          <Node Cut="0.0e+00" IVar="-1" NCoef="0" cType="1" depth="2" nType="-99" pos="r" purity="0.0e+00" res="-0.0559047833" rms="0.0e+00"/>
        </Node>
      </Node>
    </BinaryTree>
    <BinaryTree boostWeight="1.0e+00" itree="11" type="DecisionTree">
      <Node Cut="-0.719955325" IVar="27" NCoef="0" cType="1" depth="0" nType="0" pos="s" purity="0.0e+00" res="0.0e+00" rms="0.0e+00">
        <Node Cut="0.0e+00" IVar="-1" NCoef="0" cType="1" depth="1" nType="-99" pos="l" purity="0.0e+00" res="0.0416358858" rms="0.0e+00"/>
        <Node Cut="-0.313381284" IVar="2" NCoef="0" cType="1" depth="1" nType="0" pos="r" purity="0.0e+00" res="0.0e+00" rms="0.0e+00">
          <Node Cut="0.493014336" IVar="27" NCoef="0" cType="1" depth="2" nType="0" pos="l" purity="0.0e+00" res="0.0e+00" rms="0.0e+00">
            <Node Cut="0.0e+00" IVar="-1" NCoef="0" cType="1" depth="3" nType="-99" pos="l" purity="0.0e+00" res="-0.0436133929" rms="0.0e+00"/>
            <Node Cut="0.0e+00" IVar="-1" NCoef="0" cType="1" depth="3" nType="-99" pos="r" purity="0.0e+00" res="0.00833119731" rms="0.0e+00"/>
          </Node>
          <Node Cut="0.0e+00" IVar="-1" NCoef="0" cType="1" depth="2" nType="-99" pos="r" purity="0.0e+00" res="-0.0558296144" rms="0.0e+00"/>
        </Node>
      </Node>
    </BinaryTree>
    <BinaryTree boostWeight="1.0e+00" itree="12" type="DecisionTree">
      <Node Cut="-0.731744468" IVar="27" NCoef="0" cType="1" depth="0" nType="0" pos="s" purity="0.0e+00" res="0.0e+00" rms="0.0e+00">
        <Node Cut="0.506373644" IVar="16" NCoef="0" cType="1" depth="1" nType="0" pos="l" purity="0.0e+00" res="0.0e+00" rms="0.0e+00">
          <Node Cut="0.0e+00" IVar="-1" NCoef="0" cType="1" depth="2" nType="-99" pos="l" purity="0.0e+00" res="0.0578543209" rms="0.0e+00"/>
          <Node Cut="0.0e+00" IVar="-1" NCoef="0" cType="1" depth="2" nType="-99" pos="r" purity="0.0e+00" res="0.0164592545" rms="0.0e+00"/>
        </Node>
        <Node Cut="-0.18722555" IVar="1" NCoef="0" cType="1" depth="1" nType="0" pos="r" purity="0.0e+00" res="0.0e+00" rms="0.0e+00">
          <Node Cut="-0.332268" IVar="1" NCoef="0" cType="1" depth="2" nType="0" pos="l" purity="0.0e+00" res="0.0e+00" rms="0.0e+00">
            <Node Cut="0.0e+00" IVar="-1" NCoef="0" cType="1" depth="3" nType="-99" pos="l" purity="0.0e+00" res="-0.028530309" rms="0.0e+00"/>
            <Node Cut="0.0e+00" IVar="-1" NCoef="0" cType="1" depth="3" nType="-99" pos="r" purity="0.0e+00" res="0.00881565455" rms="0.0e+00"/>
          </Node>
          <Node Cut="0.0e+00" IVar="-1" NCoef="0" cType="1" depth="2" nType="-99" pos="r" purity="0.0e+00" res="-0.0549414121" rms="0.0e+00"/>
        </Node>
      </Node>
    </BinaryTree>
    <BinaryTree boostWeight="1.0e+00" itree="13" type="DecisionTree">
      <Node Cut="-0.722254038" IVar="27" NCoef="0" cType="1" depth="0" nType="0" pos="s" purity="0.0e+00" res="0.0e+00" rms="0.0e+00">
        <Node Cut="0.00303385453" IVar="28" NCoef="0" cType="1" depth="1" nType="0" pos="l" purity="0.0e+00" res="0.0e+00" rms="0.0e+00">
          <Node Cut="0.0e+00" IVar="-1" NCoef="0" cType="1" depth="2" nType="-99" pos="l" purity="0.0e+00" res="0.0722393692" rms="0.0e+00"/>
          <Node Cut="-0.464741141" IVar="14" NCoef="0" cType="1" depth="2" nType="0" pos="r" purity="0.0e+00" res="0.0e+00" rms="0.0e+00">
            <Node Cut="0.0e+00" IVar="-1" NCoef="0" cType="1" depth="3" nType="-99" pos="l" purity="0.0e+00" res="0.0489118919" rms="0.0e+00"/>
            <Node Cut="0.0e+00" IVar="-1" NCoef="0" cType="1" depth="3" nType="-99" pos="r" purity="0.0e+00" res="0.00389227946" rms="0.0e+00"/>
          </Node>
        </Node>
        <Node Cut="-0.1786578" IVar="1" NCoef="0" cType="1" depth="1" nType="0" pos="r" purity="0.0e+00" res="0.0e+00" rms="0.0e+00">
          <Node Cut="0.813996613" IVar="27" NCoef="0" cType="1" depth="2" nType="0" pos="l" purity="0.0e+00" res="0.0e+00" rms="0.0e+00">
            <Node Cut="0.0e+00" IVar="-1" NCoef="0" cType="1" depth="3" nType="-99" pos="l" purity="0.0e+00" res="-0.0316168554" rms="0.0e+00"/>
            <Node Cut="0.0e+00" IVar="-1" NCoef="0" cType="1" depth="3" nType="-99" pos="r" purity="0.0e+00" res="0.00895235036" rms="0.0e+00"/>
          </Node>
          <Node Cut="0.0e+00" IVar="-1" NCoef="0" cType="1" depth="2" nType="-99" pos="r" purity="0.0e+00" res="-0.0546352826" rms="0.0e+00"/>
        </Node>
      </Node>
    </BinaryTree>
    <BinaryTree boostWeight="1.0e+00" itree="14" type="DecisionTree">
      <Node Cut="-0.7253896" IVar="27" NCoef="0" cType="1" depth="0" nType="0" pos="s" purity="0.0e+00" res="0.0e+00" rms="0.0e+00">
        <Node Cut="0.0e+00" IVar="-1" NCoef="0" cType="1" depth="1" nType="-99" pos="l" purity="0.0e+00" res="0.0273340922" rms="0.0e+00"/>
        <Node Cut="-0.309019208" IVar="2" NCoef="0" cType="1" depth="1" nType="0" pos="r" purity="0.0e+00" res="0.0e+00" rms="0.0e+00">
          <Node Cut="0.47587949" IVar="27" NCoef="0" cType="1" depth="2" nType="0" pos="l" purity="0.0e+00" res="0.0e+00" rms="0.0e+00">
            <Node Cut="0.0e+00" IVar="-1" NCoef="0" cType="1" depth="3" nType="-99" pos="l" purity="0.0e+00" res="-0.035844516" rms="0.0e+00"/>
            <Node Cut="0.0e+00" IVar="-1" NCoef="0" cType="1" depth="3" nType="-99" pos="r" purity="0.0e+00" res="0.00654460723" rms="0.0e+00"/>
          </Node>
          <Node Cut="0.0e+00" IVar="-1" NCoef="0" cType="1" depth="2" nType="-99" pos="r" purity="0.0e+00" res="-0.0533339866" rms="0.0e+00"/>
        </Node>
      </Node>
    </BinaryTree>
    <BinaryTree boostWeight="1.0e+00" itree="15" type="DecisionTree">
      <Node Cut="-0.214902997" IVar="1" NCoef="0" cType="1" depth="0" nType="0" pos="s" purity="0.0e+00" res="0.0e+00" rms="0.0e+00">
        <Node Cut="-0.712854028" IVar="27" NCoef="0" cType="1" depth="1" nType="0" pos="l" purity="0.0e+00" res="0.0e+00" rms="0.0e+00">
          <Node Cut="-0.337999761" IVar="16" NCoef="0" cType="1" depth="2" nType="0" pos="l" purity="0.0e+00" res="0.0e+00" rms="0.0e+00">
            <Node Cut="0.0e+00" IVar="-1" NCoef="0" cType="1" depth="3" nType="-99" pos="l" purity="0.0e+00" res="0.0464945473" rms="0.0e+00"/>
            <Node Cut="0.0e+00" IVar="-1" NCoef="0" cType="1" depth="3" nType="-99" pos="r" purity="0.0e+00" res="0.0108733177" rms="0.0e+00"/>
          </Node>
          <Node Cut="0.0e+00" IVar="-1" NCoef="0" cType="1" depth="2" nType="-99" pos="r" purity="0.0e+00" res="-0.00822727662" rms="0.0e+00"/>
        </Node>
        <Node Cut="0.0e+00" IVar="-1" NCoef="0" cType="1" depth="1" nType="-99" pos="r" purity="0.0e+00" res="-0.0500674322" rms="0.0e+00"/>
      </Node>
    </BinaryTree>
    <BinaryTree boostWeight="1.0e+00" itree="16" type="DecisionTree">
      <Node Cut="-0.728737116" IVar="27" NCoef="0" cType="1" depth="0" nType="0" pos="s" purity="0.0e+00" res="0.0e+00" rms="0.0e+00">
        <Node Cut="0.79002136" IVar="16" NCoef="0" cType="1" depth="1" nType="0" pos="l" purity="0.0e+00" res="0.0e+00" rms="0.0e+00">
          <Node Cut="0.0e+00" IVar="-1" NCoef="0" cType="1" depth="2" nType="-99" pos="l" purity="0.0e+00" res="0.0461462252" rms="0.0e+00"/>
          <Node Cut="0.0e+00" IVar="-1" NCoef="0" cType="1" depth="2" nType="-99" pos="r" purity="0.0e+00" res="0.00743496884" rms="0.0e+00"/>
        </Node>
        <Node Cut="-0.313029468" IVar="2" NCoef="0" cType="1" depth="1" nType="0" pos="r" purity="0.0e+00" res="0.0e+00" rms="0.0e+00">
          <Node Cut="0.0e+00" IVar="-1" NCoef="0" cType="1" depth="2" nType="-99" pos="l" purity="0.0e+00" res="-0.0108635454" rms="0.0e+00"/>
          <Node Cut="0.0e+00" IVar="-1" NCoef="0" cType="1" depth="2" nType="-99" pos="r" purity="0.0e+00" res="-0.0515158661" rms="0.0e+00"/>
        </Node>
      </Node>
    </BinaryTree>
    <BinaryTree boostWeight="1.0e+00" itree="17" type="DecisionTree">
      <Node Cut="-0.724907994" IVar="27" NCoef="0" cType="1" depth="0" nType="0" pos="s" purity="0.0e+00" res="0.0e+00" rms="0.0e+00">
        <Node Cut="0.00389653118" IVar="17" NCoef="0" cType="1" depth="1" nType="0" pos="l" purity="0.0e+00" res="0.0e+00" rms="0.0e+00">
          <Node Cut="0.0e+00" IVar="-1" NCoef="0" cType="1" depth="2" nType="-99" pos="l" purity="0.0e+00" res="0.0533319972" rms="0.0e+00"/>
          <Node Cut="0.0e+00" IVar="-1" NCoef="0" cType="1" depth="2" nType="-99" pos="r" purity="0.0e+00" res="0.00856707897" rms="0.0e+00"/>
        </Node>
        <Node Cut="-0.183437645" IVar="1" NCoef="0" cType="1" depth="1" nType="0" pos="r" purity="0.0e+00" res="0.0e+00" rms="0.0e+00">
          <Node Cut="0.0e+00" IVar="-1" NCoef="0" cType="1" depth="2" nType="-99" pos="l" purity="0.0e+00" res="-0.0135099832" rms="0.0e+00"/>
          <Node Cut="0.0e+00" IVar="-1" NCoef="0" cType="1" depth="2" nType="-99" pos="r" purity="0.0e+00" res="-0.0527970865" rms="0.0e+00"/>
        </Node>
      </Node>
    </BinaryTree>
    <BinaryTree boostWeight="1.0e+00" itree="18" type="DecisionTree">
      <Node Cut="-0.259298205" IVar="2" NCoef="0" cType="1" depth="0" nType="0" pos="s" purity="0.0e+00" res="0.0e+00" rms="0.0e+00">
        <Node Cut="-0.72604537" IVar="27" NCoef="0" cType="1" depth="1" nType="0" pos="l" purity="0.0e+00" res="0.0e+00" rms="0.0e+00">
          <Node Cut="0.0e+00" IVar="-1" NCoef="0" cType="1" depth="2" nType="-99" pos="l" purity="0.0e+00" res="0.0299306065" rms="0.0e+00"/>
          <Node Cut="-0.416927189" IVar="0" NCoef="0" cType="1" depth="2" nType="0" pos="r" purity="0.0e+00" res="0.0e+00" rms="0.0e+00">
            <Node Cut="0.0e+00" IVar="-1" NCoef="0" cType="1" depth="3" nType="-99" pos="l" purity="0.0e+00" res="-0.0236814301" rms="0.0e+00"/>
            <Node Cut="0.0e+00" IVar="-1" NCoef="0" cType="1" depth="3" nType="-99" pos="r" purity="0.0e+00" res="0.018681312" rms="0.0e+00"/>
          </Node>
        </Node>
        <Node Cut="0.0e+00" IVar="-1" NCoef="0" cType="1" depth="1" nType="-99" pos="r" purity="0.0e+00" res="-0.0503562093" rms="0.0e+00"/>
      </Node>
    </BinaryTree>
    <BinaryTree boostWeight="1.0e+00" itree="19" type="DecisionTree">
      <Node Cut="-0.713193893" IVar="27" NCoef="0" cType="1" depth="0" nType="0" pos="s" purity="0.0e+00" res="0.0e+00" rms="0.0e+00">
        <Node Cut="0.0e+00" IVar="-1" NCoef="0" cType="1" depth="1" nType="-99" pos="l" purity="0.0e+00" res="0.027862912" rms="0.0e+00"/>
        <Node Cut="-0.382558405" IVar="5" NCoef="0" cType="1" depth="1" nType="0" pos="r" purity="0.0e+00" res="0.0e+00" rms="0.0e+00">
          <Node Cut="0.0e+00" IVar="-1" NCoef="0" cType="1" depth="2" nType="-99" pos="l" purity="0.0e+00" res="-0.0113179116" rms="0.0e+00"/>
          <Node Cut="0.0e+00" IVar="-1" NCoef="0" cType="1" depth="2" nType="-99" pos="r" purity="0.0e+00" res="-0.0512755103" rms="0.0e+00"/>
        </Node>
      </Node>
    </BinaryTree>
    <BinaryTree boostWeight="1.0e+00" itree="20" type="DecisionTree">
      <Node Cut="-0.732120454" IVar="27" NCoef="0" cType="1" depth="0" nType="0" pos="s" purity="0.0e+00" res="0.0e+00" rms="0.0e+00">
        <Node Cut="0.0e+00" IVar="-1" NCoef="0" cType="1" depth="1" nType="-99" pos="l" purity="0.0e+00" res="0.0257767178" rms="0.0e+00"/>
        <Node Cut="-0.213674098" IVar="2" NCoef="0" cType="1" depth="1" nType="0" pos="r" purity="0.0e+00" res="0.0e+00" rms="0.0e+00">
          <Node Cut="0.0e+00" IVar="-1" NCoef="0" cType="1" depth="2" nType="-99" pos="l" purity="0.0e+00" res="-0.0101896515" rms="0.0e+00"/>
          <Node Cut="0.0e+00" IVar="-1" NCoef="0" cType="1" depth="2" nType="-99" pos="r" purity="0.0e+00" res="-0.0519346707" rms="0.0e+00"/>
        </Node>
      </Node>
    </BinaryTree>
    <BinaryTree boostWeight="1.0e+00" itree="21" type="DecisionTree">
      <Node Cut="-0.201877818" IVar="1" NCoef="0" cType="1" depth="0" nType="0" pos="s" purity="0.0e+00" res="0.0e+00" rms="0.0e+00">
        <Node Cut="-0.173589766" IVar="19" NCoef="0" cType="1" depth="1" nType="0" pos="l" purity="0.0e+00" res="0.0e+00" rms="0.0e+00">
          <Node Cut="-0.658310652" IVar="21" NCoef="0" cType="1" depth="2" nType="0" pos="l" purity="0.0e+00" res="0.0e+00" rms="0.0e+00">
            <Node Cut="0.0e+00" IVar="-1" NCoef="0" cType="1" depth="3" nType="-99" pos="l" purity="0.0e+00" res="-0.0106230909" rms="0.0e+00"/>
            <Node Cut="0.0e+00" IVar="-1" NCoef="0" cType="1" depth="3" nType="-99" pos="r" purity="0.0e+00" res="0.0337660424" rms="0.0e+00"/>
          </Node>
          <Node Cut="0.0e+00" IVar="-1" NCoef="0" cType="1" depth="2" nType="-99" pos="r" purity="0.0e+00" res="-0.018322045" rms="0.0e+00"/>
        </Node>
        <Node Cut="0.0e+00" IVar="-1" NCoef="0" cType="1" depth="1" nType="-99" pos="r" purity="0.0e+00" res="-0.0481199101" rms="0.0e+00"/>
      </Node>
    </BinaryTree>
    <BinaryTree boostWeight="1.0e+00" itree="22" type="DecisionTree">
      <Node Cut="-0.320253134" IVar="5" NCoef="0" cType="1" depth="0" nType="0" pos="s" purity="0.0e+00" res="0.0e+00" rms="0.0e+00">
        <Node Cut="-0.047248967" IVar="19" NCoef="0" cType="1" depth="1" nType="0" pos="l" purity="0.0e+00" res="0.0e+00" rms="0.0e+00">
          <Node Cut="-0.781501114" IVar="25" NCoef="0" cType="1" depth="2" nType="0" pos="l" purity="0.0e+00" res="0.0e+00" rms="0.0e+00">
            <Node Cut="0.0e+00" IVar="-1" NCoef="0" cType="1" depth="3" nType="-99" pos="l" purity="0.0e+00" res="-0.0094554266" rms="0.0e+00"/>
            <Node Cut="0.0e+00" IVar="-1" NCoef="0" cType="1" depth="3" nType="-99" pos="r" purity="0.0e+00" res="0.0248047914" rms="0.0e+00"/>
          </Node>
          <Node Cut="0.0e+00" IVar="-1" NCoef="0" cType="1" depth="2" nType="-99" pos="r" purity="0.0e+00" res="-0.0257512033" rms="0.0e+00"/>
        </Node>
        <Node Cut="0.0e+00" IVar="-1" NCoef="0" cType="1" depth="1" nType="-99" pos="r" purity="0.0e+00" res="-0.0501297675" rms="0.0e+00"/>
      </Node>
    </BinaryTree>
    <BinaryTree boostWeight="1.0e+00" itree="23" type="DecisionTree">
      <Node Cut="-0.713273525" IVar="27" NCoef="0" cType="1" depth="0" nType="0" pos="s" purity="0.0e+00" res="0.0e+00" rms="0.0e+00">
        <Node Cut="0.0168292727" IVar="17" NCoef="0" cType="1" depth="1" nType="0" pos="l" purity="0.0e+00" res="0.0e+00" rms="0.0e+00">
          <Node Cut="0.0e+00" IVar="-1" NCoef="0" cType="1" depth="2" nType="-99" pos="l" purity="0.0e+00" res="0.0445882268" rms="0.0e+00"/>
          <Node Cut="0.0e+00" IVar="-1" NCoef="0" cType="1" depth="2" nType="-99" pos="r" purity="0.0e+00" res="0.00373148522" rms="0.0e+00"/>
        </Node>
        <Node Cut="0.0397314578" IVar="27" NCoef="0" cType="1" depth="1" nType="0" pos="r" purity="0.0e+00" res="0.0e+00" rms="0.0e+00">
          <Node Cut="0.0e+00" IVar="-1" NCoef="0" cType="1" depth="2" nType="-99" pos="l" purity="0.0e+00" res="-0.0512149744" rms="0.0e+00"/>
          <Node Cut="0.0e+00" IVar="-1" NCoef="0" cType="1" depth="2" nType="-99" pos="r" purity="0.0e+00" res="-0.00855661836" rms="0.0e+00"/>
        </Node>
      </Node>
    </BinaryTree>
    <BinaryTree boostWeight="1.0e+00" itree="24" type="DecisionTree">
      <Node Cut="-0.251053035" IVar="2" NCoef="0" cType="1" depth="0" nType="0" pos="s" purity="0.0e+00" res="0.0e+00" rms="0.0e+00">
        <Node Cut="-0.713273525" IVar="27" NCoef="0" cType="1" depth="1" nType="0" pos="l" purity="0.0e+00" res="0.0e+00" rms="0.0e+00">
          <Node Cut="0.0180822313" IVar="3" NCoef="0" cType="1" depth="2" nType="0" pos="l" purity="0.0e+00" res="0.0e+00" rms="0.0e+00">
            <Node Cut="0.0e+00" IVar="-1" NCoef="0" cType="1" depth="3" nType="-99" pos="l" purity="0.0e+00" res="0.0483886711" rms="0.0e+00"/>
            <Node Cut="0.0e+00" IVar="-1" NCoef="0" cType="1" depth="3" nType="-99" pos="r" purity="0.0e+00" res="0.00871731713" rms="0.0e+00"/>
          </Node>
          <Node Cut="0.0e+00" IVar="-1" NCoef="0" cType="1" depth="2" nType="-99" pos="r" purity="0.0e+00" res="-0.00850987341" rms="0.0e+00"/>
        </Node>
        <Node Cut="0.0e+00" IVar="-1" NCoef="0" cType="1" depth="1" nType="-99" pos="r" purity="0.0e+00" res="-0.0504583791" rms="0.0e+00"/>
      </Node>
    </BinaryTree>
    <BinaryTree boostWeight="1.0e+00" itree="25" type="DecisionTree">
      <Node Cut="-0.273178101" IVar="2" NCoef="0" cType="1" depth="0" nType="0" pos="s" purity="0.0e+00" res="0.0e+00" rms="0.0e+00">
        <Node Cut="-0.80087769" IVar="23" NCoef="0" cType="1" depth="1" nType="0" pos="l" purity="0.0e+00" res="0.0e+00" rms="0.0e+00">
          <Node Cut="-0.148637027" IVar="15" NCoef="0" cType="1" depth="2" nType="0" pos="l" purity="0.0e+00" res="0.0e+00" rms="0.0e+00">
            <Node Cut="0.0e+00" IVar="-1" NCoef="0" cType="1" depth="3" nType="-99" pos="l" purity="0.0e+00" res="0.0432651415" rms="0.0e+00"/>
            <Node Cut="0.0e+00" IVar="-1" NCoef="0" cType="1" depth="3" nType="-99" pos="r" purity="0.0e+00" res="0.00462900242" rms="0.0e+00"/>
          </Node>
          <Node Cut="0.0e+00" IVar="-1" NCoef="0" cType="1" depth="2" nType="-99" pos="r" purity="0.0e+00" res="-0.0122316293" rms="0.0e+00"/>
        </Node>
        <Node Cut="0.0e+00" IVar="-1" NCoef="0" cType="1" depth="1" nType="-99" pos="r" purity="0.0e+00" res="-0.0492561348" rms="0.0e+00"/>
      </Node>
    </BinaryTree>
    <BinaryTree boostWeight="1.0e+00" itree="26" type="DecisionTree">
      <Node Cut="-0.715133548" IVar="27" NCoef="0" cType="1" depth="0" nType="0" pos="s" purity="0.0e+00" res="0.0e+00" rms="0.0e+00">
        <Node Cut="0.0e+00" IVar="-1" NCoef="0" cType="1" depth="1" nType="-99" pos="l" purity="0.0e+00" res="0.01711566" rms="0.0e+00"/>
        <Node Cut="0.350110173" IVar="27" NCoef="0" cType="1" depth="1" nType="0" pos="r" purity="0.0e+00" res="0.0e+00" rms="0.0e+00">
          <Node Cut="0.0e+00" IVar="-1" NCoef="0" cType="1" depth="2" nType="-99" pos="l" purity="0.0e+00" res="-0.0462748893" rms="0.0e+00"/>
          <Node Cut="0.0e+00" IVar="-1" NCoef="0" cType="1" depth="2" nType="-99" pos="r" purity="0.0e+00" res="-0.0100850416" rms="0.0e+00"/>
        </Node>
      </Node>
    </BinaryTree>
    <BinaryTree boostWeight="1.0e+00" itree="27" type="DecisionTree">
      <Node Cut="-0.183272988" IVar="1" NCoef="0" cType="1" depth="0" nType="0" pos="s" purity="0.0e+00" res="0.0e+00" rms="0.0e+00">
        <Node Cut="0.0e+00" IVar="-1" NCoef="0" cType="1" depth="1" nType="-99" pos="l" purity="0.0e+00" res="0.00952512491" rms="0.0e+00"/>
        <Node Cut="0.0e+00" IVar="-1" NCoef="0" cType="1" depth="1" nType="-99" pos="r" purity="0.0e+00" res="-0.0457083657" rms="0.0e+00"/>
      </Node>
    </BinaryTree>
    <BinaryTree boostWeight="1.0e+00" itree="28" type="DecisionTree">
      <Node Cut="-0.255611181" IVar="2" NCoef="0" cType="1" depth="0" nType="0" pos="s" purity="0.0e+00" res="0.0e+00" rms="0.0e+00">
        <Node Cut="-0.0711429492" IVar="20" NCoef="0" cType="1" depth="1" nType="0" pos="l" purity="0.0e+00" res="0.0e+00" rms="0.0e+00">
          <Node Cut="0.0e+00" IVar="-1" NCoef="0" cType="1" depth="2" nType="-99" pos="l" purity="0.0e+00" res="0.0204077847" rms="0.0e+00"/>
          <Node Cut="0.0e+00" IVar="-1" NCoef="0" cType="1" depth="2" nType="-99" pos="r" purity="0.0e+00" res="-0.0104364287" rms="0.0e+00"/>
        </Node>
        <Node Cut="0.0e+00" IVar="-1" NCoef="0" cType="1" depth="1" nType="-99" pos="r" purity="0.0e+00" res="-0.0472685471" rms="0.0e+00"/>
      </Node>
    </BinaryTree>
    <BinaryTree boostWeight="1.0e+00" itree="29" type="DecisionTree">
      <Node Cut="-0.79780221" IVar="23" NCoef="0" cType="1" depth="0" nType="0" pos="s" purity="0.0e+00" res="0.0e+00" rms="0.0e+00">
        <Node Cut="0.0e+00" IVar="-1" NCoef="0" cType="1" depth="1" nType="-99" pos="l" purity="0.0e+00" res="0.007927211" rms="0.0e+00"/>
        <Node Cut="0.0e+00" IVar="-1" NCoef="0" cType="1" depth="1" nType="-99" pos="r" purity="0.0e+00" res="-0.0266182423" rms="0.0e+00"/>
      </Node>
    </BinaryTree>
    <BinaryTree boostWeight="1.0e+00" itree="30" type="DecisionTree">
      <Node Cut="-0.720225692" IVar="27" NCoef="0" cType="1" depth="0" nType="0" pos="s" purity="0.0e+00" res="0.0e+00" rms="0.0e+00">
        <Node Cut="-0.0400219262" IVar="11" NCoef="0" cType="1" depth="1" nType="0" pos="l" purity="0.0e+00" res="0.0e+00" rms="0.0e+00">
          <Node Cut="0.0e+00" IVar="-1" NCoef="0" cType="1" depth="2" nType="-99" pos="l" purity="0.0e+00" res="0.00147596595" rms="0.0e+00"/>
          <Node Cut="0.0e+00" IVar="-1" NCoef="0" cType="1" depth="2" nType="-99" pos="r" purity="0.0e+00" res="0.040986225" rms="0.0e+00"/>
        </Node>
        <Node Cut="-0.00536289765" IVar="27" NCoef="0" cType="1" depth="1" nType="0" pos="r" purity="0.0e+00" res="0.0e+00" rms="0.0e+00">
          <Node Cut="0.0e+00" IVar="-1" NCoef="0" cType="1" depth="2" nType="-99" pos="l" purity="0.0e+00" res="-0.0446593277" rms="0.0e+00"/>
          <Node Cut="0.0e+00" IVar="-1" NCoef="0" cType="1" depth="2" nType="-99" pos="r" purity="0.0e+00" res="-0.00671977177" rms="0.0e+00"/>
        </Node>
      </Node>
    </BinaryTree>
    <BinaryTree boostWeight="1.0e+00" itree="31" type="DecisionTree">
      <Node Cut="-0.273178101" IVar="2" NCoef="0" cType="1" depth="0" nType="0" pos="s" purity="0.0e+00" res="0.0e+00" rms="0.0e+00">
        <Node Cut="-0.846651256" IVar="23" NCoef="0" cType="1" depth="1" nType="0" pos="l" purity="0.0e+00" res="0.0e+00" rms="0.0e+00">
          <Node Cut="0.045839943" IVar="24" NCoef="0" cType="1" depth="2" nType="0" pos="l" purity="0.0e+00" res="0.0e+00" rms="0.0e+00">
            <Node Cut="0.0e+00" IVar="-1" NCoef="0" cType="1" depth="3" nType="-99" pos="l" purity="0.0e+00" res="0.0387403518" rms="0.0e+00"/>
            <Node Cut="0.0e+00" IVar="-1" NCoef="0" cType="1" depth="3" nType="-99" pos="r" purity="0.0e+00" res="-0.00253284164" rms="0.0e+00"/>
          </Node>
          <Node Cut="0.0e+00" IVar="-1" NCoef="0" cType="1" depth="2" nType="-99" pos="r" purity="0.0e+00" res="-0.00937741902" rms="0.0e+00"/>
        </Node>
        <Node Cut="0.0e+00" IVar="-1" NCoef="0" cType="1" depth="1" nType="-99" pos="r" purity="0.0e+00" res="-0.0462145172" rms="0.0e+00"/>
      </Node>
    </BinaryTree>
    <BinaryTree boostWeight="1.0e+00" itree="32" type="DecisionTree">
      <Node Cut="-0.201877818" IVar="1" NCoef="0" cType="1" depth="0" nType="0" pos="s" purity="0.0e+00" res="0.0e+00" rms="0.0e+00">
        <Node Cut="-0.0165287741" IVar="28" NCoef="0" cType="1" depth="1" nType="0" pos="l" purity="0.0e+00" res="0.0e+00" rms="0.0e+00">
          <Node Cut="0.0e+00" IVar="-1" NCoef="0" cType="1" depth="2" nType="-99" pos="l" purity="0.0e+00" res="-0.0118581979" rms="0.0e+00"/>
          <Node Cut="0.0e+00" IVar="-1" NCoef="0" cType="1" depth="2" nType="-99" pos="r" purity="0.0e+00" res="0.020653395" rms="0.0e+00"/>
        </Node>
        <Node Cut="0.0e+00" IVar="-1" NCoef="0" cType="1" depth="1" nType="-99" pos="r" purity="0.0e+00" res="-0.0421814956" rms="0.0e+00"/>
      </Node>
    </BinaryTree>
    <BinaryTree boostWeight="1.0e+00" itree="33" type="DecisionTree">
      <Node Cut="-0.244787842" IVar="0" NCoef="0" cType="1" depth="0" nType="0" pos="s" purity="0.0e+00" res="0.0e+00" rms="0.0e+00">
        <Node Cut="-0.895130873" IVar="5" NCoef="0" cType="1" depth="1" nType="0" pos="l" purity="0.0e+00" res="0.0e+00" rms="0.0e+00">
          <Node Cut="0.0e+00" IVar="-1" NCoef="0" cType="1" depth="2" nType="-99" pos="l" purity="0.0e+00" res="0.0309147537" rms="0.0e+00"/>
          <Node Cut="-0.333494008" IVar="1" NCoef="0" cType="1" depth="2" nType="0" pos="r" purity="0.0e+00" res="0.0e+00" rms="0.0e+00">
            <Node Cut="0.0e+00" IVar="-1" NCoef="0" cType="1" depth="3" nType="-99" pos="l" purity="0.0e+00" res="-0.0171234813" rms="0.0e+00"/>
            <Node Cut="0.0e+00" IVar="-1" NCoef="0" cType="1" depth="3" nType="-99" pos="r" purity="0.0e+00" res="0.0183676388" rms="0.0e+00"/>
          </Node>
        </Node>
        <Node Cut="0.0e+00" IVar="-1" NCoef="0" cType="1" depth="1" nType="-99" pos="r" purity="0.0e+00" res="-0.0433153175" rms="0.0e+00"/>
      </Node>
    </BinaryTree>
    <BinaryTree boostWeight="1.0e+00" itree="34" type="DecisionTree">
      <Node Cut="-0.431298614" IVar="5" NCoef="0" cType="1" depth="0" nType="0" pos="s" purity="0.0e+00" res="0.0e+00" rms="0.0e+00">
        <Node Cut="0.0e+00" IVar="-1" NCoef="0" cType="1" depth="1" nType="-99" pos="l" purity="0.0e+00" res="0.00457233703" rms="0.0e+00"/>
        <Node Cut="0.0e+00" IVar="-1" NCoef="0" cType="1" depth="1" nType="-99" pos="r" purity="0.0e+00" res="-0.0387151279" rms="0.0e+00"/>
      </Node>
    </BinaryTree>
    <BinaryTree boostWeight="1.0e+00" itree="35" type="DecisionTree">
      <Node Cut="-0.249529168" IVar="0" NCoef="0" cType="1" depth="0" nType="0" pos="s" purity="0.0e+00" res="0.0e+00" rms="0.0e+00">
        <Node Cut="0.0e+00" IVar="-1" NCoef="0" cType="1" depth="1" nType="-99" pos="l" purity="0.0e+00" res="0.00573376566" rms="0.0e+00"/>
        <Node Cut="0.0e+00" IVar="-1" NCoef="0" cType="1" depth="1" nType="-99" pos="r" purity="0.0e+00" res="-0.0395028107" rms="0.0e+00"/>
      </Node>
    </BinaryTree>
    <BinaryTree boostWeight="1.0e+00" itree="36" type="DecisionTree">
      <Node Cut="-0.626913071" IVar="2" NCoef="0" cType="1" depth="0" nType="0" pos="s" purity="0.0e+00" res="0.0e+00" rms="0.0e+00">
        <Node Cut="0.0e+00" IVar="-1" NCoef="0" cType="1" depth="1" nType="-99" pos="l" purity="0.0e+00" res="0.0172176529" rms="0.0e+00"/>
        <Node Cut="0.0e+00" IVar="-1" NCoef="0" cType="1" depth="1" nType="-99" pos="r" purity="0.0e+00" res="-0.0165471118" rms="0.0e+00"/>
      </Node>
    </BinaryTree>
    <BinaryTree boostWeight="1.0e+00" itree="37" type="DecisionTree">
      <Node Cut="-0.435749888" IVar="1" NCoef="0" cType="1" depth="0" nType="0" pos="s" purity="0.0e+00" res="0.0e+00" rms="0.0e+00">
        <Node Cut="0.0e+00" IVar="-1" NCoef="0" cType="1" depth="1" nType="-99" pos="l" purity="0.0e+00" res="0.0190076511" rms="0.0e+00"/>
        <Node Cut="0.0e+00" IVar="-1" NCoef="0" cType="1" depth="1" nType="-99" pos="r" purity="0.0e+00" res="-0.0128745083" rms="0.0e+00"/>
      </Node>
    </BinaryTree>
    <BinaryTree boostWeight="1.0e+00" itree="38" type="DecisionTree">
      <Node Cut="-0.740657806" IVar="27" NCoef="0" cType="1" depth="0" nType="0" pos="s" purity="0.0e+00" res="0.0e+00" rms="0.0e+00">
        <Node Cut="0.0e+00" IVar="-1" NCoef="0" cType="1" depth="1" nType="-99" pos="l" purity="0.0e+00" res="0.0164233167" rms="0.0e+00"/>
        <Node Cut="0.0e+00" IVar="-1" NCoef="0" cType="1" depth="1" nType="-99" pos="r" purity="0.0e+00" res="-0.0174810421" rms="0.0e+00"/>
      </Node>
    </BinaryTree>
    <BinaryTree boostWeight="1.0e+00" itree="39" type="DecisionTree">
      <Node Cut="-0.435097963" IVar="1" NCoef="0" cType="1" depth="0" nType="0" pos="s" purity="0.0e+00" res="0.0e+00" rms="0.0e+00">
        <Node Cut="0.0e+00" IVar="-1" NCoef="0" cType="1" depth="1" nType="-99" pos="l" purity="0.0e+00" res="0.0204840153" rms="0.0e+00"/>
        <Node Cut="0.0e+00" IVar="-1" NCoef="0" cType="1" depth="1" nType="-99" pos="r" purity="0.0e+00" res="-0.0150085939" rms="0.0e+00"/>
      </Node>
    </BinaryTree>
    <BinaryTree boostWeight="1.0e+00" itree="40" type="DecisionTree">
      <Node Cut="0.0e+00" IVar="-1" NCoef="0" cType="1" depth="0" nType="-99" pos="s" purity="0.0e+00" res="-0.00385426241" rms="0.0e+00"/>
    </BinaryTree>
    <BinaryTree boostWeight="1.0e+00" itree="41" type="DecisionTree">
      <Node Cut="-0.316819131" IVar="0" NCoef="0" cType="1" depth="0" nType="0" pos="s" purity="0.0e+00" res="0.0e+00" rms="0.0e+00">
        <Node Cut="0.0e+00" IVar="-1" NCoef="0" cType="1" depth="1" nType="-99" pos="l" purity="0.0e+00" res="0.00567567023" rms="0.0e+00"/>
        <Node Cut="0.0e+00" IVar="-1" NCoef="0" cType="1" depth="1" nType="-99" pos="r" purity="0.0e+00" res="-0.0329766683" rms="0.0e+00"/>
      </Node>
    </BinaryTree>
    <BinaryTree boostWeight="1.0e+00" itree="42" type="DecisionTree">
      <Node Cut="-0.713273525" IVar="27" NCoef="0" cType="1" depth="0" nType="0" pos="s" purity="0.0e+00" res="0.0e+00" rms="0.0e+00">
        <Node Cut="0.0e+00" IVar="-1" NCoef="0" cType="1" depth="1" nType="-99" pos="l" purity="0.0e+00" res="0.0197220724" rms="0.0e+00"/>
        <Node Cut="0.24029392" IVar="27" NCoef="0" cType="1" depth="1" nType="0" pos="r" purity="0.0e+00" res="0.0e+00" rms="0.0e+00">
          <Node Cut="0.0e+00" IVar="-1" NCoef="0" cType="1" depth="2" nType="-99" pos="l" purity="0.0e+00" res="-0.0450048931" rms="0.0e+00"/>
          <Node Cut="0.0e+00" IVar="-1" NCoef="0" cType="1" depth="2" nType="-99" pos="r" purity="0.0e+00" res="-0.00638419902" rms="0.0e+00"/>
        </Node>
      </Node>
    </BinaryTree>
    <BinaryTree boostWeight="1.0e+00" itree="43" type="DecisionTree">
      <Node Cut="0.0e+00" IVar="-1" NCoef="0" cType="1" depth="0" nType="-99" pos="s" purity="0.0e+00" res="-0.00118727749" rms="0.0e+00"/>
    </BinaryTree>
    <BinaryTree boostWeight="1.0e+00" itree="44" type="DecisionTree">
      <Node Cut="0.164007589" IVar="23" NCoef="0" cType="1" depth="0" nType="0" pos="s" purity="0.0e+00" res="0.0e+00" rms="0.0e+00">
        <Node Cut="0.0e+00" IVar="-1" NCoef="0" cType="1" depth="1" nType="-99" pos="l" purity="0.0e+00" res="0.00335838436" rms="0.0e+00"/>
        <Node Cut="0.0e+00" IVar="-1" NCoef="0" cType="1" depth="1" nType="-99" pos="r" purity="0.0e+00" res="-0.0359617807" rms="0.0e+00"/>
      </Node>
    </BinaryTree>
    <BinaryTree boostWeight="1.0e+00" itree="45" type="DecisionTree">
      <Node Cut="0.0e+00" IVar="-1" NCoef="0" cType="1" depth="0" nType="-99" pos="s" purity="0.0e+00" res="-0.005604262" rms="0.0e+00"/>
    </BinaryTree>
    <BinaryTree boostWeight="1.0e+00" itree="46" type="DecisionTree">
      <Node Cut="-0.938476562" IVar="5" NCoef="0" cType="1" depth="0" nType="0" pos="s" purity="0.0e+00" res="0.0e+00" rms="0.0e+00">
        <Node Cut="0.0e+00" IVar="-1" NCoef="0" cType="1" depth="1" nType="-99" pos="l" purity="0.0e+00" res="0.0289596748" rms="0.0e+00"/>
        <Node Cut="0.885127902" IVar="27" NCoef="0" cType="1" depth="1" nType="0" pos="r" purity="0.0e+00" res="0.0e+00" rms="0.0e+00">
          <Node Cut="-0.715716004" IVar="27" NCoef="0" cType="1" depth="2" nType="0" pos="l" purity="0.0e+00" res="0.0e+00" rms="0.0e+00">
            <Node Cut="0.0e+00" IVar="-1" NCoef="0" cType="1" depth="3" nType="-99" pos="l" purity="0.0e+00" res="0.00287567591" rms="0.0e+00"/>
            <Node Cut="0.0e+00" IVar="-1" NCoef="0" cType="1" depth="3" nType="-99" pos="r" purity="0.0e+00" res="-0.0359684378" rms="0.0e+00"/>
          </Node>
          <Node Cut="0.0e+00" IVar="-1" NCoef="0" cType="1" depth="2" nType="-99" pos="r" purity="0.0e+00" res="0.018053364" rms="0.0e+00"/>
        </Node>
      </Node>
    </BinaryTree>
    <BinaryTree boostWeight="1.0e+00" itree="47" type="DecisionTree">
      <Node Cut="0.0e+00" IVar="-1" NCoef="0" cType="1" depth="0" nType="-99" pos="s" purity="0.0e+00" res="-0.00455218973" rms="0.0e+00"/>
    </BinaryTree>
    <BinaryTree boostWeight="1.0e+00" itree="48" type="DecisionTree">
      <Node Cut="-0.455830544" IVar="5" NCoef="0" cType="1" depth="0" nType="0" pos="s" purity="0.0e+00" res="0.0e+00" rms="0.0e+00">
        <Node Cut="0.0e+00" IVar="-1" NCoef="0" cType="1" depth="1" nType="-99" pos="l" purity="0.0e+00" res="0.00884742569" rms="0.0e+00"/>
        <Node Cut="0.0e+00" IVar="-1" NCoef="0" cType="1" depth="1" nType="-99" pos="r" purity="0.0e+00" res="-0.0324937366" rms="0.0e+00"/>
      </Node>
    </BinaryTree>
    <BinaryTree boostWeight="1.0e+00" itree="49" type="DecisionTree">
      <Node Cut="-0.475251555" IVar="14" NCoef="0" cType="1" depth="0" nType="0" pos="s" purity="0.0e+00" res="0.0e+00" rms="0.0e+00">
        <Node Cut="0.0e+00" IVar="-1" NCoef="0" cType="1" depth="1" nType="-99" pos="l" purity="0.0e+00" res="0.0203007739" rms="0.0e+00"/>
        <Node Cut="0.0e+00" IVar="-1" NCoef="0" cType="1" depth="1" nType="-99" pos="r" purity="0.0e+00" res="-0.0146554206" rms="0.0e+00"/>
      </Node>
    </BinaryTree>
    <BinaryTree boostWeight="1.0e+00" itree="50" type="DecisionTree">
      <Node Cut="-0.739723802" IVar="27" NCoef="0" cType="1" depth="0" nType="0" pos="s" purity="0.0e+00" res="0.0e+00" rms="0.0e+00">
        <Node Cut="0.0e+00" IVar="-1" NCoef="0" cType="1" depth="1" nType="-99" pos="l" purity="0.0e+00" res="0.0159537904" rms="0.0e+00"/>
        <Node Cut="0.0e+00" IVar="-1" NCoef="0" cType="1" depth="1" nType="-99" pos="r" purity="0.0e+00" res="-0.0151767479" rms="0.0e+00"/>
      </Node>
    </BinaryTree>
    <BinaryTree boostWeight="1.0e+00" itree="51" type="DecisionTree">
      <Node Cut="0.0e+00" IVar="-1" NCoef="0" cType="1" depth="0" nType="-99" pos="s" purity="0.0e+00" res="-0.00204128004" rms="0.0e+00"/>
    </BinaryTree>
    <BinaryTree boostWeight="1.0e+00" itree="52" type="DecisionTree">
      <Node Cut="0.0e+00" IVar="-1" NCoef="0" cType="1" depth="0" nType="-99" pos="s" purity="0.0e+00" res="-0.00184653443" rms="0.0e+00"/>
    </BinaryTree>
    <BinaryTree boostWeight="1.0e+00" itree="53" type="DecisionTree">
      <Node Cut="0.0e+00" IVar="-1" NCoef="0" cType="1" depth="0" nType="-99" pos="s" purity="0.0e+00" res="-0.00269917352" rms="0.0e+00"/>
    </BinaryTree>
    <BinaryTree boostWeight="1.0e+00" itree="54" type="DecisionTree">
      <Node Cut="0.0e+00" IVar="-1" NCoef="0" cType="1" depth="0" nType="-99" pos="s" purity="0.0e+00" res="-0.00261680945" rms="0.0e+00"/>
    </BinaryTree>
    <BinaryTree boostWeight="1.0e+00" itree="55" type="DecisionTree">
      <Node Cut="-0.713267982" IVar="27" NCoef="0" cType="1" depth="0" nType="0" pos="s" purity="0.0e+00" res="0.0e+00" rms="0.0e+00">
        <Node Cut="-0.0237844177" IVar="10" NCoef="0" cType="1" depth="1" nType="0" pos="l" purity="0.0e+00" res="0.0e+00" rms="0.0e+00">
          <Node Cut="0.0e+00" IVar="-1" NCoef="0" cType="1" depth="2" nType="-99" pos="l" purity="0.0e+00" res="-0.00196799939" rms="0.0e+00"/>
          <Node Cut="0.0e+00" IVar="-1" NCoef="0" cType="1" depth="2" nType="-99" pos="r" purity="0.0e+00" res="0.0364080556" rms="0.0e+00"/>
        </Node>
        <Node Cut="0.0e+00" IVar="-1" NCoef="0" cType="1" depth="1" nType="-99" pos="r" purity="0.0e+00" res="-0.0109612448" rms="0.0e+00"/>
      </Node>
    </BinaryTree>
    <BinaryTree boostWeight="1.0e+00" itree="56" type="DecisionTree">
      <Node Cut="-0.472662866" IVar="5" NCoef="0" cType="1" depth="0" nType="0" pos="s" purity="0.0e+00" res="0.0e+00" rms="0.0e+00">
        <Node Cut="0.0e+00" IVar="-1" NCoef="0" cType="1" depth="1" nType="-99" pos="l" purity="0.0e+00" res="0.00779755739" rms="0.0e+00"/>
        <Node Cut="0.0e+00" IVar="-1" NCoef="0" cType="1" depth="1" nType="-99" pos="r" purity="0.0e+00" res="-0.0273769982" rms="0.0e+00"/>
      </Node>
    </BinaryTree>
    <BinaryTree boostWeight="1.0e+00" itree="57" type="DecisionTree">
      <Node Cut="0.0e+00" IVar="-1" NCoef="0" cType="1" depth="0" nType="-99" pos="s" purity="0.0e+00" res="-0.00252591656" rms="0.0e+00"/>
    </BinaryTree>
    <BinaryTree boostWeight="1.0e+00" itree="58" type="DecisionTree">
      <Node Cut="0.0e+00" IVar="-1" NCoef="0" cType="1" depth="0" nType="-99" pos="s" purity="0.0e+00" res="-0.00259225792" rms="0.0e+00"/>
    </BinaryTree>
    <BinaryTree boostWeight="1.0e+00" itree="59" type="DecisionTree">
      <Node Cut="0.0e+00" IVar="-1" NCoef="0" cType="1" depth="0" nType="-99" pos="s" purity="0.0e+00" res="5.97267463e-05" rms="0.0e+00"/>
    </BinaryTree>
    <BinaryTree boostWeight="1.0e+00" itree="60" type="DecisionTree">
      <Node Cut="0.0e+00" IVar="-1" NCoef="0" cType="1" depth="0" nType="-99" pos="s" purity="0.0e+00" res="0.00278639887" rms="0.0e+00"/>
    </BinaryTree>
    <BinaryTree boostWeight="1.0e+00" itree="61" type="DecisionTree">
      <Node Cut="-0.804529905" IVar="23" NCoef="0" cType="1" depth="0" nType="0" pos="s" purity="0.0e+00" res="0.0e+00" rms="0.0e+00">
        <Node Cut="0.0e+00" IVar="-1" NCoef="0" cType="1" depth="1" nType="-99" pos="l" purity="0.0e+00" res="0.0152909709" rms="0.0e+00"/>
        <Node Cut="0.0e+00" IVar="-1" NCoef="0" cType="1" depth="1" nType="-99" pos="r" purity="0.0e+00" res="-0.0135856485" rms="0.0e+00"/>
      </Node>
    </BinaryTree>
    <BinaryTree boostWeight="1.0e+00" itree="62" type="DecisionTree">
      <Node Cut="-0.428097814" IVar="19" NCoef="0" cType="1" depth="0" nType="0" pos="s" purity="0.0e+00" res="0.0e+00" rms="0.0e+00">
        <Node Cut="0.0e+00" IVar="-1" NCoef="0" cType="1" depth="1" nType="-99" pos="l" purity="0.0e+00" res="0.023291273" rms="0.0e+00"/>
        <Node Cut="0.0e+00" IVar="-1" NCoef="0" cType="1" depth="1" nType="-99" pos="r" purity="0.0e+00" res="-0.00727237388" rms="0.0e+00"/>
      </Node>
    </BinaryTree>
    <BinaryTree boostWeight="1.0e+00" itree="63" type="DecisionTree">
      <Node Cut="0.0e+00" IVar="-1" NCoef="0" cType="1" depth="0" nType="-99" pos="s" purity="0.0e+00" res="-0.00285548321" rms="0.0e+00"/>
    </BinaryTree>
    <BinaryTree boostWeight="1.0e+00" itree="64" type="DecisionTree">
      <Node Cut="-0.715133548" IVar="27" NCoef="0" cType="1" depth="0" nType="0" pos="s" purity="0.0e+00" res="0.0e+00" rms="0.0e+00">
        <Node Cut="0.0916534886" IVar="6" NCoef="0" cType="1" depth="1" nType="0" pos="l" purity="0.0e+00" res="0.0e+00" rms="0.0e+00">
          <Node Cut="0.0e+00" IVar="-1" NCoef="0" cType="1" depth="2" nType="-99" pos="l" purity="0.0e+00" res="0.029809013" rms="0.0e+00"/>
          <Node Cut="0.0e+00" IVar="-1" NCoef="0" cType="1" depth="2" nType="-99" pos="r" purity="0.0e+00" res="-0.0129885348" rms="0.0e+00"/>
        </Node>
        <Node Cut="0.81403327" IVar="27" NCoef="0" cType="1" depth="1" nType="0" pos="r" purity="0.0e+00" res="0.0e+00" rms="0.0e+00">
          <Node Cut="0.0e+00" IVar="-1" NCoef="0" cType="1" depth="2" nType="-99" pos="l" purity="0.0e+00" res="-0.0343190655" rms="0.0e+00"/>
          <Node Cut="0.0e+00" IVar="-1" NCoef="0" cType="1" depth="2" nType="-99" pos="r" purity="0.0e+00" res="0.0114539145" rms="0.0e+00"/>
        </Node>
      </Node>
    </BinaryTree>
    <BinaryTree boostWeight="1.0e+00" itree="65" type="DecisionTree">
      <Node Cut="-0.241971523" IVar="22" NCoef="0" cType="1" depth="0" nType="0" pos="s" purity="0.0e+00" res="0.0e+00" rms="0.0e+00">
        <Node Cut="0.0e+00" IVar="-1" NCoef="0" cType="1" depth="1" nType="-99" pos="l" purity="0.0e+00" res="-0.0230662655" rms="0.0e+00"/>
        <Node Cut="-0.0356099904" IVar="20" NCoef="0" cType="1" depth="1" nType="0" pos="r" purity="0.0e+00" res="0.0e+00" rms="0.0e+00">
          <Node Cut="0.0e+00" IVar="-1" NCoef="0" cType="1" depth="2" nType="-99" pos="l" purity="0.0e+00" res="0.0161105841" rms="0.0e+00"/>
          <Node Cut="-0.0153338658" IVar="17" NCoef="0" cType="1" depth="2" nType="0" pos="r" purity="0.0e+00" res="0.0e+00" rms="0.0e+00">
            <Node Cut="0.0e+00" IVar="-1" NCoef="0" cType="1" depth="3" nType="-99" pos="l" purity="0.0e+00" res="0.0096985912" rms="0.0e+00"/>
            <Node Cut="0.0e+00" IVar="-1" NCoef="0" cType="1" depth="3" nType="-99" pos="r" purity="0.0e+00" res="-0.0305625591" rms="0.0e+00"/>
          </Node>
        </Node>
      </Node>
    </BinaryTree>
    <BinaryTree boostWeight="1.0e+00" itree="66" type="DecisionTree">
      <Node Cut="0.0e+00" IVar="-1" NCoef="0" cType="1" depth="0" nType="-99" pos="s" purity="0.0e+00" res="-0.00205351808" rms="0.0e+00"/>
    </BinaryTree>
    <BinaryTree boostWeight="1.0e+00" itree="67" type="DecisionTree">
      <Node Cut="-0.429921925" IVar="1" NCoef="0" cType="1" depth="0" nType="0" pos="s" purity="0.0e+00" res="0.0e+00" rms="0.0e+00">
        <Node Cut="0.0e+00" IVar="-1" NCoef="0" cType="1" depth="1" nType="-99" pos="l" purity="0.0e+00" res="0.0256369859" rms="0.0e+00"/>
        <Node Cut="0.0e+00" IVar="-1" NCoef="0" cType="1" depth="1" nType="-99" pos="r" purity="0.0e+00" res="-0.00937151816" rms="0.0e+00"/>
      </Node>
    </BinaryTree>
    <BinaryTree boostWeight="1.0e+00" itree="68" type="DecisionTree">
      <Node Cut="0.0e+00" IVar="-1" NCoef="0" cType="1" depth="0" nType="-99" pos="s" purity="0.0e+00" res="0.0033779412" rms="0.0e+00"/>
    </BinaryTree>
    <BinaryTree boostWeight="1.0e+00" itree="69" type="DecisionTree">
      <Node Cut="0.0e+00" IVar="-1" NCoef="0" cType="1" depth="0" nType="-99" pos="s" purity="0.0e+00" res="-0.00458680326" rms="0.0e+00"/>
    </BinaryTree>
    <BinaryTree boostWeight="1.0e+00" itree="70" type="DecisionTree">
      <Node Cut="-0.627070189" IVar="2" NCoef="0" cType="1" depth="0" nType="0" pos="s" purity="0.0e+00" res="0.0e+00" rms="0.0e+00">
        <Node Cut="0.0e+00" IVar="-1" NCoef="0" cType="1" depth="1" nType="-99" pos="l" purity="0.0e+00" res="0.0159907881" rms="0.0e+00"/>
        <Node Cut="0.0e+00" IVar="-1" NCoef="0" cType="1" depth="1" nType="-99" pos="r" purity="0.0e+00" res="-0.0121546928" rms="0.0e+00"/>
      </Node>
    </BinaryTree>
    <BinaryTree boostWeight="1.0e+00" itree="71" type="DecisionTree">
      <Node Cut="0.103050619" IVar="7" NCoef="0" cType="1" depth="0" nType="0" pos="s" purity="0.0e+00" res="0.0e+00" rms="0.0e+00">
        <Node Cut="0.0e+00" IVar="-1" NCoef="0" cType="1" depth="1" nType="-99" pos="l" purity="0.0e+00" res="0.0135144163" rms="0.0e+00"/>
        <Node Cut="0.0e+00" IVar="-1" NCoef="0" cType="1" depth="1" nType="-99" pos="r" purity="0.0e+00" res="-0.0180318858" rms="0.0e+00"/>
      </Node>
    </BinaryTree>
    <BinaryTree boostWeight="1.0e+00" itree="72" type="DecisionTree">
      <Node Cut="-0.629629195" IVar="2" NCoef="0" cType="1" depth="0" nType="0" pos="s" purity="0.0e+00" res="0.0e+00" rms="0.0e+00">
        <Node Cut="0.0e+00" IVar="-1" NCoef="0" cType="1" depth="1" nType="-99" pos="l" purity="0.0e+00" res="0.0187956691" rms="0.0e+00"/>
        <Node Cut="-0.338258922" IVar="1" NCoef="0" cType="1" depth="1" nType="0" pos="r" purity="0.0e+00" res="0.0e+00" rms="0.0e+00">
          <Node Cut="0.0e+00" IVar="-1" NCoef="0" cType="1" depth="2" nType="-99" pos="l" purity="0.0e+00" res="-0.0424780175" rms="0.0e+00"/>
          <Node Cut="0.0e+00" IVar="-1" NCoef="0" cType="1" depth="2" nType="-99" pos="r" purity="0.0e+00" res="0.000607573369" rms="0.0e+00"/>
        </Node>
      </Node>
    </BinaryTree>
    <BinaryTree boostWeight="1.0e+00" itree="73" type="DecisionTree">
      <Node Cut="-0.0125811202" IVar="28" NCoef="0" cType="1" depth="0" nType="0" pos="s" purity="0.0e+00" res="0.0e+00" rms="0.0e+00">
        <Node Cut="0.0e+00" IVar="-1" NCoef="0" cType="1" depth="1" nType="-99" pos="l" purity="0.0e+00" res="-0.0240395498" rms="0.0e+00"/>
        <Node Cut="0.046175424" IVar="24" NCoef="0" cType="1" depth="1" nType="0" pos="r" purity="0.0e+00" res="0.0e+00" rms="0.0e+00">
          <Node Cut="0.0e+00" IVar="-1" NCoef="0" cType="1" depth="2" nType="-99" pos="l" purity="0.0e+00" res="0.0211374499" rms="0.0e+00"/>
          <Node Cut="0.0e+00" IVar="-1" NCoef="0" cType="1" depth="2" nType="-99" pos="r" purity="0.0e+00" res="-0.0121015869" rms="0.0e+00"/>
        </Node>
      </Node>
    </BinaryTree>
    <BinaryTree boostWeight="1.0e+00" itree="74" type="DecisionTree">
      <Node Cut="0.0e+00" IVar="-1" NCoef="0" cType="1" depth="0" nType="-99" pos="s" purity="0.0e+00" res="0.00580436643" rms="0.0e+00"/>
    </BinaryTree>
    <BinaryTree boostWeight="1.0e+00" itree="75" type="DecisionTree">
      <Node Cut="0.0e+00" IVar="-1" NCoef="0" cType="1" depth="0" nType="-99" pos="s" purity="0.0e+00" res="-0.00287388056" rms="0.0e+00"/>
    </BinaryTree>
    <BinaryTree boostWeight="1.0e+00" itree="76" type="DecisionTree">
      <Node Cut="0.0e+00" IVar="-1" NCoef="0" cType="1" depth="0" nType="-99" pos="s" purity="0.0e+00" res="-2.84246689e-05" rms="0.0e+00"/>
    </BinaryTree>
    <BinaryTree boostWeight="1.0e+00" itree="77" type="DecisionTree">
      <Node Cut="0.0e+00" IVar="-1" NCoef="0" cType="1" depth="0" nType="-99" pos="s" purity="0.0e+00" res="-0.0017758396" rms="0.0e+00"/>
    </BinaryTree>
    <BinaryTree boostWeight="1.0e+00" itree="78" type="DecisionTree">
      <Node Cut="0.0522916317" IVar="3" NCoef="0" cType="1" depth="0" nType="0" pos="s" purity="0.0e+00" res="0.0e+00" rms="0.0e+00">
        <Node Cut="-0.736996412" IVar="27" NCoef="0" cType="1" depth="1" nType="0" pos="l" purity="0.0e+00" res="0.0e+00" rms="0.0e+00">
          <Node Cut="0.0e+00" IVar="-1" NCoef="0" cType="1" depth="2" nType="-99" pos="l" purity="0.0e+00" res="0.0315537415" rms="0.0e+00"/>
          <Node Cut="0.0e+00" IVar="-1" NCoef="0" cType="1" depth="2" nType="-99" pos="r" purity="0.0e+00" res="-0.00615907926" rms="0.0e+00"/>
        </Node>
        <Node Cut="0.0e+00" IVar="-1" NCoef="0" cType="1" depth="1" nType="-99" pos="r" purity="0.0e+00" res="-0.0175964404" rms="0.0e+00"/>
      </Node>
    </BinaryTree>
    <BinaryTree boostWeight="1.0e+00" itree="79" type="DecisionTree">
      <Node Cut="0.0e+00" IVar="-1" NCoef="0" cType="1" depth="0" nType="-99" pos="s" purity="0.0e+00" res="-0.00286293472" rms="0.0e+00"/>
    </BinaryTree>
    <BinaryTree boostWeight="1.0e+00" itree="80" type="DecisionTree">
      <Node Cut="0.0e+00" IVar="-1" NCoef="0" cType="1" depth="0" nType="-99" pos="s" purity="0.0e+00" res="0.00108809024" rms="0.0e+00"/>
    </BinaryTree>
    <BinaryTree boostWeight="1.0e+00" itree="81" type="DecisionTree">
      <Node Cut="0.0e+00" IVar="-1" NCoef="0" cType="1" depth="0" nType="-99" pos="s" purity="0.0e+00" res="0.000160781768" rms="0.0e+00"/>
    </BinaryTree>
    <BinaryTree boostWeight="1.0e+00" itree="82" type="DecisionTree">
      <Node Cut="0.0e+00" IVar="-1" NCoef="0" cType="1" depth="0" nType="-99" pos="s" purity="0.0e+00" res="0.000931099232" rms="0.0e+00"/>
    </BinaryTree>
    <BinaryTree boostWeight="1.0e+00" itree="83" type="DecisionTree">
      <Node Cut="0.0e+00" IVar="-1" NCoef="0" cType="1" depth="0" nType="-99" pos="s" purity="0.0e+00" res="0.000804460899" rms="0.0e+00"/>
    </BinaryTree>
    <BinaryTree boostWeight="1.0e+00" itree="84" type="DecisionTree">
      <Node Cut="0.0e+00" IVar="-1" NCoef="0" cType="1" depth="0" nType="-99" pos="s" purity="0.0e+00" res="-0.00184832106" rms="0.0e+00"/>
    </BinaryTree>
    <BinaryTree boostWeight="1.0e+00" itree="85" type="DecisionTree">
      <Node Cut="0.0e+00" IVar="-1" NCoef="0" cType="1" depth="0" nType="-99" pos="s" purity="0.0e+00" res="-0.000178421775" rms="0.0e+00"/>
    </BinaryTree>
    <BinaryTree boostWeight="1.0e+00" itree="86" type="DecisionTree">
      <Node Cut="0.0e+00" IVar="-1" NCoef="0" cType="1" depth="0" nType="-99" pos="s" purity="0.0e+00" res="-0.00307294354" rms="0.0e+00"/>
    </BinaryTree>
    <BinaryTree boostWeight="1.0e+00" itree="87" type="DecisionTree">
      <Node Cut="0.0e+00" IVar="-1" NCoef="0" cType="1" depth="0" nType="-99" pos="s" purity="0.0e+00" res="-0.00482796272" rms="0.0e+00"/>
    </BinaryTree>
    <BinaryTree boostWeight="1.0e+00" itree="88" type="DecisionTree">
      <Node Cut="-0.716716051" IVar="27" NCoef="0" cType="1" depth="0" nType="0" pos="s" purity="0.0e+00" res="0.0e+00" rms="0.0e+00">
        <Node Cut="-1.20787549" IVar="23" NCoef="0" cType="1" depth="1" nType="0" pos="l" purity="0.0e+00" res="0.0e+00" rms="0.0e+00">
          <Node Cut="0.0e+00" IVar="-1" NCoef="0" cType="1" depth="2" nType="-99" pos="l" purity="0.0e+00" res="-0.0140341669" rms="0.0e+00"/>
          <Node Cut="0.0e+00" IVar="-1" NCoef="0" cType="1" depth="2" nType="-99" pos="r" purity="0.0e+00" res="0.0255759247" rms="0.0e+00"/>
        </Node>
        <Node Cut="0.0e+00" IVar="-1" NCoef="0" cType="1" depth="1" nType="-99" pos="r" purity="0.0e+00" res="-0.011504218" rms="0.0e+00"/>
      </Node>
    </BinaryTree>
    <BinaryTree boostWeight="1.0e+00" itree="89" type="DecisionTree">
      <Node Cut="0.0e+00" IVar="-1" NCoef="0" cType="1" depth="0" nType="-99" pos="s" purity="0.0e+00" res="-5.819117e-05" rms="0.0e+00"/>
    </BinaryTree>
    <BinaryTree boostWeight="1.0e+00" itree="90" type="DecisionTree">
      <Node Cut="0.0e+00" IVar="-1" NCoef="0" cType="1" depth="0" nType="-99" pos="s" purity="0.0e+00" res="0.0050951438" rms="0.0e+00"/>
    </BinaryTree>
    <BinaryTree boostWeight="1.0e+00" itree="91" type="DecisionTree">
      <Node Cut="-0.747655869" IVar="27" NCoef="0" cType="1" depth="0" nType="0" pos="s" purity="0.0e+00" res="0.0e+00" rms="0.0e+00">
        <Node Cut="0.0e+00" IVar="-1" NCoef="0" cType="1" depth="1" nType="-99" pos="l" purity="0.0e+00" res="0.0298277792" rms="0.0e+00"/>
        <Node Cut="0.0e+00" IVar="-1" NCoef="0" cType="1" depth="1" nType="-99" pos="r" purity="0.0e+00" res="-0.00936022773" rms="0.0e+00"/>
      </Node>
    </BinaryTree>
    <BinaryTree boostWeight="1.0e+00" itree="92" type="DecisionTree">
      <Node Cut="0.0e+00" IVar="-1" NCoef="0" cType="1" depth="0" nType="-99" pos="s" purity="0.0e+00" res="0.00454914477" rms="0.0e+00"/>
    </BinaryTree>
    <BinaryTree boostWeight="1.0e+00" itree="93" type="DecisionTree">
      <Node Cut="0.0e+00" IVar="-1" NCoef="0" cType="1" depth="0" nType="-99" pos="s" purity="0.0e+00" res="-0.000896914338" rms="0.0e+00"/>
    </BinaryTree>
    <BinaryTree boostWeight="1.0e+00" itree="94" type="DecisionTree">
      <Node Cut="0.0e+00" IVar="-1" NCoef="0" cType="1" depth="0" nType="-99" pos="s" purity="0.0e+00" res="-0.00623119948" rms="0.0e+00"/>
    </BinaryTree>
    <BinaryTree boostWeight="1.0e+00" itree="95" type="DecisionTree">
      <Node Cut="0.0e+00" IVar="-1" NCoef="0" cType="1" depth="0" nType="-99" pos="s" purity="0.0e+00" res="-0.00336322794" rms="0.0e+00"/>
    </BinaryTree>
    <BinaryTree boostWeight="1.0e+00" itree="96" type="DecisionTree">
      <Node Cut="0.0e+00" IVar="-1" NCoef="0" cType="1" depth="0" nType="-99" pos="s" purity="0.0e+00" res="-0.00267311069" rms="0.0e+00"/>
    </BinaryTree>
    <BinaryTree boostWeight="1.0e+00" itree="97" type="DecisionTree">
      <Node Cut="0.0e+00" IVar="-1" NCoef="0" cType="1" depth="0" nType="-99" pos="s" purity="0.0e+00" res="0.000785704411" rms="0.0e+00"/>
    </BinaryTree>
    <BinaryTree boostWeight="1.0e+00" itree="98" type="DecisionTree">
      <Node Cut="0.0e+00" IVar="-1" NCoef="0" cType="1" depth="0" nType="-99" pos="s" purity="0.0e+00" res="-0.000308188173" rms="0.0e+00"/>
    </BinaryTree>
    <BinaryTree boostWeight="1.0e+00" itree="99" type="DecisionTree">
      <Node Cut="0.0e+00" IVar="-1" NCoef="0" cType="1" depth="0" nType="-99" pos="s" purity="0.0e+00" res="-0.00736974552" rms="0.0e+00"/>
    </BinaryTree>
    <BinaryTree boostWeight="1.0e+00" itree="100" type="DecisionTree">
      <Node Cut="-0.435329258" IVar="1" NCoef="0" cType="1" depth="0" nType="0" pos="s" purity="0.0e+00" res="0.0e+00" rms="0.0e+00">
        <Node Cut="0.0e+00" IVar="-1" NCoef="0" cType="1" depth="1" nType="-99" pos="l" purity="0.0e+00" res="0.0264067538" rms="0.0e+00"/>
        <Node Cut="0.0e+00" IVar="-1" NCoef="0" cType="1" depth="1" nType="-99" pos="r" purity="0.0e+00" res="-0.0104111675" rms="0.0e+00"/>
      </Node>
    </BinaryTree>
    <BinaryTree boostWeight="1.0e+00" itree="101" type="DecisionTree">
      <Node Cut="0.0e+00" IVar="-1" NCoef="0" cType="1" depth="0" nType="-99" pos="s" purity="0.0e+00" res="-0.000908272516" rms="0.0e+00"/>
    </BinaryTree>
    <BinaryTree boostWeight="1.0e+00" itree="102" type="DecisionTree">
      <Node Cut="0.0e+00" IVar="-1" NCoef="0" cType="1" depth="0" nType="-99" pos="s" purity="0.0e+00" res="0.0020161178" rms="0.0e+00"/>
    </BinaryTree>
    <BinaryTree boostWeight="1.0e+00" itree="103" type="DecisionTree">
      <Node Cut="0.0e+00" IVar="-1" NCoef="0" cType="1" depth="0" nType="-99" pos="s" purity="0.0e+00" res="-0.000378009601" rms="0.0e+00"/>
    </BinaryTree>
    <BinaryTree boostWeight="1.0e+00" itree="104" type="DecisionTree">
      <Node Cut="0.0e+00" IVar="-1" NCoef="0" cType="1" depth="0" nType="-99" pos="s" purity="0.0e+00" res="0.00138102786" rms="0.0e+00"/>
    </BinaryTree>
    <BinaryTree boostWeight="1.0e+00" itree="105" type="DecisionTree">
      <Node Cut="0.0e+00" IVar="-1" NCoef="0" cType="1" depth="0" nType="-99" pos="s" purity="0.0e+00" res="-0.00458402047" rms="0.0e+00"/>
    </BinaryTree>
    <BinaryTree boostWeight="1.0e+00" itree="106" type="DecisionTree">
      <Node Cut="0.0e+00" IVar="-1" NCoef="0" cType="1" depth="0" nType="-99" pos="s" purity="0.0e+00" res="-0.00452176901" rms="0.0e+00"/>
    </BinaryTree>
    <BinaryTree boostWeight="1.0e+00" itree="107" type="DecisionTree">
      <Node Cut="0.0e+00" IVar="-1" NCoef="0" cType="1" depth="0" nType="-99" pos="s" purity="0.0e+00" res="0.00367578841" rms="0.0e+00"/>
    </BinaryTree>
    <BinaryTree boostWeight="1.0e+00" itree="108" type="DecisionTree">
      <Node Cut="0.0e+00" IVar="-1" NCoef="0" cType="1" depth="0" nType="-99" pos="s" purity="0.0e+00" res="-0.00150293123" rms="0.0e+00"/>
    </BinaryTree>
    <BinaryTree boostWeight="1.0e+00" itree="109" type="DecisionTree">
      <Node Cut="0.0e+00" IVar="-1" NCoef="0" cType="1" depth="0" nType="-99" pos="s" purity="0.0e+00" res="-0.00062000443" rms="0.0e+00"/>
    </BinaryTree>
    <BinaryTree boostWeight="1.0e+00" itree="110" type="DecisionTree">
      <Node Cut="0.0e+00" IVar="-1" NCoef="0" cType="1" depth="0" nType="-99" pos="s" purity="0.0e+00" res="-0.00179415382" rms="0.0e+00"/>
    </BinaryTree>
    <BinaryTree boostWeight="1.0e+00" itree="111" type="DecisionTree">
      <Node Cut="0.0e+00" IVar="-1" NCoef="0" cType="1" depth="0" nType="-99" pos="s" purity="0.0e+00" res="-0.00520074321" rms="0.0e+00"/>
    </BinaryTree>
    <BinaryTree boostWeight="1.0e+00" itree="112" type="DecisionTree">
      <Node Cut="0.0e+00" IVar="-1" NCoef="0" cType="1" depth="0" nType="-99" pos="s" purity="0.0e+00" res="-0.00465358514" rms="0.0e+00"/>
    </BinaryTree>
    <BinaryTree boostWeight="1.0e+00" itree="113" type="DecisionTree">
      <Node Cut="0.0e+00" IVar="-1" NCoef="0" cType="1" depth="0" nType="-99" pos="s" purity="0.0e+00" res="-0.00312506198" rms="0.0e+00"/>
    </BinaryTree>
    <BinaryTree boostWeight="1.0e+00" itree="114" type="DecisionTree">
      <Node Cut="0.0e+00" IVar="-1" NCoef="0" cType="1" depth="0" nType="-99" pos="s" purity="0.0e+00" res="-0.00110316707" rms="0.0e+00"/>
    </BinaryTree>
    <BinaryTree boostWeight="1.0e+00" itree="115" type="DecisionTree">
      <Node Cut="0.0e+00" IVar="-1" NCoef="0" cType="1" depth="0" nType="-99" pos="s" purity="0.0e+00" res="-0.00865608733" rms="0.0e+00"/>
    </BinaryTree>
    <BinaryTree boostWeight="1.0e+00" itree="116" type="DecisionTree">
      <Node Cut="0.0e+00" IVar="-1" NCoef="0" cType="1" depth="0" nType="-99" pos="s" purity="0.0e+00" res="0.00483995024" rms="0.0e+00"/>
    </BinaryTree>
    <BinaryTree boostWeight="1.0e+00" itree="117" type="DecisionTree">
      <Node Cut="0.0e+00" IVar="-1" NCoef="0" cType="1" depth="0" nType="-99" pos="s" purity="0.0e+00" res="-0.00372684118" rms="0.0e+00"/>
    </BinaryTree>
    <BinaryTree boostWeight="1.0e+00" itree="118" type="DecisionTree">
      <Node Cut="-0.882574081" IVar="23" NCoef="0" cType="1" depth="0" nType="0" pos="s" purity="0.0e+00" res="0.0e+00" rms="0.0e+00">
        <Node Cut="-0.472410142" IVar="19" NCoef="0" cType="1" depth="1" nType="0" pos="l" purity="0.0e+00" res="0.0e+00" rms="0.0e+00">
          <Node Cut="0.0e+00" IVar="-1" NCoef="0" cType="1" depth="2" nType="-99" pos="l" purity="0.0e+00" res="-0.0115277171" rms="0.0e+00"/>
          <Node Cut="0.0e+00" IVar="-1" NCoef="0" cType="1" depth="2" nType="-99" pos="r" purity="0.0e+00" res="0.0310937762" rms="0.0e+00"/>
        </Node>
        <Node Cut="0.0e+00" IVar="-1" NCoef="0" cType="1" depth="1" nType="-99" pos="r" purity="0.0e+00" res="-0.0101678232" rms="0.0e+00"/>
      </Node>
    </BinaryTree>
    <BinaryTree boostWeight="1.0e+00" itree="119" type="DecisionTree">
      <Node Cut="0.0e+00" IVar="-1" NCoef="0" cType="1" depth="0" nType="-99" pos="s" purity="0.0e+00" res="-8.25447023e-06" rms="0.0e+00"/>
    </BinaryTree>
    <BinaryTree boostWeight="1.0e+00" itree="120" type="DecisionTree">
      <Node Cut="0.0e+00" IVar="-1" NCoef="0" cType="1" depth="0" nType="-99" pos="s" purity="0.0e+00" res="0.000824938645" rms="0.0e+00"/>
    </BinaryTree>
    <BinaryTree boostWeight="1.0e+00" itree="121" type="DecisionTree">
      <Node Cut="0.0e+00" IVar="-1" NCoef="0" cType="1" depth="0" nType="-99" pos="s" purity="0.0e+00" res="-0.00351718417" rms="0.0e+00"/>
    </BinaryTree>
    <BinaryTree boostWeight="1.0e+00" itree="122" type="DecisionTree">
      <Node Cut="0.0e+00" IVar="-1" NCoef="0" cType="1" depth="0" nType="-99" pos="s" purity="0.0e+00" res="0.00297368504" rms="0.0e+00"/>
    </BinaryTree>
    <BinaryTree boostWeight="1.0e+00" itree="123" type="DecisionTree">
      <Node Cut="0.0e+00" IVar="-1" NCoef="0" cType="1" depth="0" nType="-99" pos="s" purity="0.0e+00" res="0.00186138321" rms="0.0e+00"/>
    </BinaryTree>
    <BinaryTree boostWeight="1.0e+00" itree="124" type="DecisionTree">
      <Node Cut="-0.110032231" IVar="7" NCoef="0" cType="1" depth="0" nType="0" pos="s" purity="0.0e+00" res="0.0e+00" rms="0.0e+00">
        <Node Cut="0.0e+00" IVar="-1" NCoef="0" cType="1" depth="1" nType="-99" pos="l" purity="0.0e+00" res="0.0291288439" rms="0.0e+00"/>
        <Node Cut="0.0e+00" IVar="-1" NCoef="0" cType="1" depth="1" nType="-99" pos="r" purity="0.0e+00" res="-0.011443465" rms="0.0e+00"/>
      </Node>
    </BinaryTree>
    <BinaryTree boostWeight="1.0e+00" itree="125" type="DecisionTree">
      <Node Cut="0.0e+00" IVar="-1" NCoef="0" cType="1" depth="0" nType="-99" pos="s" purity="0.0e+00" res="-0.000860909291" rms="0.0e+00"/>
    </BinaryTree>
    <BinaryTree boostWeight="1.0e+00" itree="126" type="DecisionTree">
      <Node Cut="0.0e+00" IVar="-1" NCoef="0" cType="1" depth="0" nType="-99" pos="s" purity="0.0e+00" res="-0.00206389814" rms="0.0e+00"/>
    </BinaryTree>
    <BinaryTree boostWeight="1.0e+00" itree="127" type="DecisionTree">
      <Node Cut="0.0e+00" IVar="-1" NCoef="0" cType="1" depth="0" nType="-99" pos="s" purity="0.0e+00" res="-0.00238603028" rms="0.0e+00"/>
    </BinaryTree>
    <BinaryTree boostWeight="1.0e+00" itree="128" type="DecisionTree">
      <Node Cut="0.0e+00" IVar="-1" NCoef="0" cType="1" depth="0" nType="-99" pos="s" purity="0.0e+00" res="0.000960412435" rms="0.0e+00"/>
    </BinaryTree>
    <BinaryTree boostWeight="1.0e+00" itree="129" type="DecisionTree">
      <Node Cut="-0.660147786" IVar="2" NCoef="0" cType="1" depth="0" nType="0" pos="s" purity="0.0e+00" res="0.0e+00" rms="0.0e+00">
        <Node Cut="0.0e+00" IVar="-1" NCoef="0" cType="1" depth="1" nType="-99" pos="l" purity="0.0e+00" res="0.020836316" rms="0.0e+00"/>
        <Node Cut="0.0e+00" IVar="-1" NCoef="0" cType="1" depth="1" nType="-99" pos="r" purity="0.0e+00" res="-0.0131064523" rms="0.0e+00"/>
      </Node>
    </BinaryTree>
    <BinaryTree boostWeight="1.0e+00" itree="130" type="DecisionTree">
      <Node Cut="0.0e+00" IVar="-1" NCoef="0" cType="1" depth="0" nType="-99" pos="s" purity="0.0e+00" res="-0.0021623536" rms="0.0e+00"/>
    </BinaryTree>
    <BinaryTree boostWeight="1.0e+00" itree="131" type="DecisionTree">
      <Node Cut="0.0e+00" IVar="-1" NCoef="0" cType="1" depth="0" nType="-99" pos="s" purity="0.0e+00" res="0.00189536146" rms="0.0e+00"/>
    </BinaryTree>
    <BinaryTree boostWeight="1.0e+00" itree="132" type="DecisionTree">
      <Node Cut="0.0e+00" IVar="-1" NCoef="0" cType="1" depth="0" nType="-99" pos="s" purity="0.0e+00" res="0.00327621703" rms="0.0e+00"/>
    </BinaryTree>
    <BinaryTree boostWeight="1.0e+00" itree="133" type="DecisionTree">
      <Node Cut="0.0e+00" IVar="-1" NCoef="0" cType="1" depth="0" nType="-99" pos="s" purity="0.0e+00" res="0.000987770851" rms="0.0e+00"/>
    </BinaryTree>
    <BinaryTree boostWeight="1.0e+00" itree="134" type="DecisionTree">
      <Node Cut="0.0e+00" IVar="-1" NCoef="0" cType="1" depth="0" nType="-99" pos="s" purity="0.0e+00" res="-0.00352063752" rms="0.0e+00"/>
    </BinaryTree>
    <BinaryTree boostWeight="1.0e+00" itree="135" type="DecisionTree">
      <Node Cut="0.0e+00" IVar="-1" NCoef="0" cType="1" depth="0" nType="-99" pos="s" purity="0.0e+00" res="0.00181756099" rms="0.0e+00"/>
    </BinaryTree>
    <BinaryTree boostWeight="1.0e+00" itree="136" type="DecisionTree">
      <Node Cut="0.0e+00" IVar="-1" NCoef="0" cType="1" depth="0" nType="-99" pos="s" purity="0.0e+00" res="0.0014936853" rms="0.0e+00"/>
    </BinaryTree>
    <BinaryTree boostWeight="1.0e+00" itree="137" type="DecisionTree">
      <Node Cut="0.0e+00" IVar="-1" NCoef="0" cType="1" depth="0" nType="-99" pos="s" purity="0.0e+00" res="-0.00280344742" rms="0.0e+00"/>
    </BinaryTree>
    <BinaryTree boostWeight="1.0e+00" itree="138" type="DecisionTree">
      <Node Cut="0.0e+00" IVar="-1" NCoef="0" cType="1" depth="0" nType="-99" pos="s" purity="0.0e+00" res="-0.00292410422" rms="0.0e+00"/>
    </BinaryTree>
    <BinaryTree boostWeight="1.0e+00" itree="139" type="DecisionTree">
      <Node Cut="0.0e+00" IVar="-1" NCoef="0" cType="1" depth="0" nType="-99" pos="s" purity="0.0e+00" res="-0.00081709493" rms="0.0e+00"/>
    </BinaryTree>
    <BinaryTree boostWeight="1.0e+00" itree="140" type="DecisionTree">
      <Node Cut="0.0e+00" IVar="-1" NCoef="0" cType="1" depth="0" nType="-99" pos="s" purity="0.0e+00" res="0.00155990978" rms="0.0e+00"/>
    </BinaryTree>
    <BinaryTree boostWeight="1.0e+00" itree="141" type="DecisionTree">
      <Node Cut="0.0e+00" IVar="-1" NCoef="0" cType="1" depth="0" nType="-99" pos="s" purity="0.0e+00" res="-0.00159131666" rms="0.0e+00"/>
    </BinaryTree>
    <BinaryTree boostWeight="1.0e+00" itree="142" type="DecisionTree">
      <Node Cut="0.0e+00" IVar="-1" NCoef="0" cType="1" depth="0" nType="-99" pos="s" purity="0.0e+00" res="-0.00157561048" rms="0.0e+00"/>
    </BinaryTree>
    <BinaryTree boostWeight="1.0e+00" itree="143" type="DecisionTree">
      <Node Cut="0.0e+00" IVar="-1" NCoef="0" cType="1" depth="0" nType="-99" pos="s" purity="0.0e+00" res="-0.0014833794" rms="0.0e+00"/>
    </BinaryTree>
    <BinaryTree boostWeight="1.0e+00" itree="144" type="DecisionTree">
      <Node Cut="0.0e+00" IVar="-1" NCoef="0" cType="1" depth="0" nType="-99" pos="s" purity="0.0e+00" res="0.000485657773" rms="0.0e+00"/>
    </BinaryTree>
    <BinaryTree boostWeight="1.0e+00" itree="145" type="DecisionTree">
      <Node Cut="0.0e+00" IVar="-1" NCoef="0" cType="1" depth="0" nType="-99" pos="s" purity="0.0e+00" res="-0.00171174796" rms="0.0e+00"/>
    </BinaryTree>
    <BinaryTree boostWeight="1.0e+00" itree="146" type="DecisionTree">
      <Node Cut="0.0e+00" IVar="-1" NCoef="0" cType="1" depth="0" nType="-99" pos="s" purity="0.0e+00" res="-0.00104542065" rms="0.0e+00"/>
    </BinaryTree>
    <BinaryTree boostWeight="1.0e+00" itree="147" type="DecisionTree">
      <Node Cut="0.0e+00" IVar="-1" NCoef="0" cType="1" depth="0" nType="-99" pos="s" purity="0.0e+00" res="-0.00150200014" rms="0.0e+00"/>
    </BinaryTree>
    <BinaryTree boostWeight="1.0e+00" itree="148" type="DecisionTree">
      <Node Cut="0.0e+00" IVar="-1" NCoef="0" cType="1" depth="0" nType="-99" pos="s" purity="0.0e+00" res="0.00268424884" rms="0.0e+00"/>
    </BinaryTree>
    <BinaryTree boostWeight="1.0e+00" itree="149" type="DecisionTree">
      <Node Cut="0.0e+00" IVar="-1" NCoef="0" cType="1" depth="0" nType="-99" pos="s" purity="0.0e+00" res="0.000935624936" rms="0.0e+00"/>
    </BinaryTree>
    <BinaryTree boostWeight="1.0e+00" itree="150" type="DecisionTree">
      <Node Cut="0.278267562" IVar="12" NCoef="0" cType="1" depth="0" nType="0" pos="s" purity="0.0e+00" res="0.0e+00" rms="0.0e+00">
        <Node Cut="-0.726724386" IVar="23" NCoef="0" cType="1" depth="1" nType="0" pos="l" purity="0.0e+00" res="0.0e+00" rms="0.0e+00">
          <Node Cut="0.0e+00" IVar="-1" NCoef="0" cType="1" depth="2" nType="-99" pos="l" purity="0.0e+00" res="0.0350922719" rms="0.0e+00"/>
          <Node Cut="0.0e+00" IVar="-1" NCoef="0" cType="1" depth="2" nType="-99" pos="r" purity="0.0e+00" res="-0.008823107" rms="0.0e+00"/>
        </Node>
        <Node Cut="0.0e+00" IVar="-1" NCoef="0" cType="1" depth="1" nType="-99" pos="r" purity="0.0e+00" res="-0.00962941535" rms="0.0e+00"/>
      </Node>
    </BinaryTree>
    <BinaryTree boostWeight="1.0e+00" itree="151" type="DecisionTree">
      <Node Cut="0.0e+00" IVar="-1" NCoef="0" cType="1" depth="0" nType="-99" pos="s" purity="0.0e+00" res="-0.00601070048" rms="0.0e+00"/>
    </BinaryTree>
    <BinaryTree boostWeight="1.0e+00" itree="152" type="DecisionTree">
      <Node Cut="0.0e+00" IVar="-1" NCoef="0" cType="1" depth="0" nType="-99" pos="s" purity="0.0e+00" res="-0.00124788564" rms="0.0e+00"/>
    </BinaryTree>
    <BinaryTree boostWeight="1.0e+00" itree="153" type="DecisionTree">
      <Node Cut="-0.429475486" IVar="1" NCoef="0" cType="1" depth="0" nType="0" pos="s" purity="0.0e+00" res="0.0e+00" rms="0.0e+00">
        <Node Cut="0.0e+00" IVar="-1" NCoef="0" cType="1" depth="1" nType="-99" pos="l" purity="0.0e+00" res="0.0209571663" rms="0.0e+00"/>
        <Node Cut="0.0e+00" IVar="-1" NCoef="0" cType="1" depth="1" nType="-99" pos="r" purity="0.0e+00" res="-0.0110198455" rms="0.0e+00"/>
      </Node>
    </BinaryTree>
    <BinaryTree boostWeight="1.0e+00" itree="154" type="DecisionTree">
      <Node Cut="0.0e+00" IVar="-1" NCoef="0" cType="1" depth="0" nType="-99" pos="s" purity="0.0e+00" res="0.00429433025" rms="0.0e+00"/>
    </BinaryTree>
    <BinaryTree boostWeight="1.0e+00" itree="155" type="DecisionTree">
      <Node Cut="-0.0743589178" IVar="23" NCoef="0" cType="1" depth="0" nType="0" pos="s" purity="0.0e+00" res="0.0e+00" rms="0.0e+00">
        <Node Cut="0.0e+00" IVar="-1" NCoef="0" cType="1" depth="1" nType="-99" pos="l" purity="0.0e+00" res="0.0135017401" rms="0.0e+00"/>
        <Node Cut="0.0e+00" IVar="-1" NCoef="0" cType="1" depth="1" nType="-99" pos="r" purity="0.0e+00" res="-0.0214603525" rms="0.0e+00"/>
      </Node>
    </BinaryTree>
    <BinaryTree boostWeight="1.0e+00" itree="156" type="DecisionTree">
      <Node Cut="0.0e+00" IVar="-1" NCoef="0" cType="1" depth="0" nType="-99" pos="s" purity="0.0e+00" res="-0.00358666526" rms="0.0e+00"/>
    </BinaryTree>
    <BinaryTree boostWeight="1.0e+00" itree="157" type="DecisionTree">
      <Node Cut="0.0e+00" IVar="-1" NCoef="0" cType="1" depth="0" nType="-99" pos="s" purity="0.0e+00" res="0.00668323552" rms="0.0e+00"/>
    </BinaryTree>
    <BinaryTree boostWeight="1.0e+00" itree="158" type="DecisionTree">
      <Node Cut="0.0e+00" IVar="-1" NCoef="0" cType="1" depth="0" nType="-99" pos="s" purity="0.0e+00" res="0.000405596715" rms="0.0e+00"/>
    </BinaryTree>
    <BinaryTree boostWeight="1.0e+00" itree="159" type="DecisionTree">
      <Node Cut="0.0e+00" IVar="-1" NCoef="0" cType="1" depth="0" nType="-99" pos="s" purity="0.0e+00" res="-0.00122336717" rms="0.0e+00"/>
    </BinaryTree>
    <BinaryTree boostWeight="1.0e+00" itree="160" type="DecisionTree">
      <Node Cut="-0.428043067" IVar="1" NCoef="0" cType="1" depth="0" nType="0" pos="s" purity="0.0e+00" res="0.0e+00" rms="0.0e+00">
        <Node Cut="0.0e+00" IVar="-1" NCoef="0" cType="1" depth="1" nType="-99" pos="l" purity="0.0e+00" res="0.0210898649" rms="0.0e+00"/>
        <Node Cut="-0.472596228" IVar="0" NCoef="0" cType="1" depth="1" nType="0" pos="r" purity="0.0e+00" res="0.0e+00" rms="0.0e+00">
          <Node Cut="0.0e+00" IVar="-1" NCoef="0" cType="1" depth="2" nType="-99" pos="l" purity="0.0e+00" res="-0.0277951546" rms="0.0e+00"/>
          <Node Cut="0.0e+00" IVar="-1" NCoef="0" cType="1" depth="2" nType="-99" pos="r" purity="0.0e+00" res="0.00643589301" rms="0.0e+00"/>
        </Node>
      </Node>
    </BinaryTree>
    <BinaryTree boostWeight="1.0e+00" itree="161" type="DecisionTree">
      <Node Cut="0.0e+00" IVar="-1" NCoef="0" cType="1" depth="0" nType="-99" pos="s" purity="0.0e+00" res="0.00110158056" rms="0.0e+00"/>
    </BinaryTree>
    <BinaryTree boostWeight="1.0e+00" itree="162" type="DecisionTree">
      <Node Cut="0.0e+00" IVar="-1" NCoef="0" cType="1" depth="0" nType="-99" pos="s" purity="0.0e+00" res="0.00425662147" rms="0.0e+00"/>
    </BinaryTree>
    <BinaryTree boostWeight="1.0e+00" itree="163" type="DecisionTree">
      <Node Cut="-0.741655529" IVar="27" NCoef="0" cType="1" depth="0" nType="0" pos="s" purity="0.0e+00" res="0.0e+00" rms="0.0e+00">
        <Node Cut="0.0e+00" IVar="-1" NCoef="0" cType="1" depth="1" nType="-99" pos="l" purity="0.0e+00" res="0.0169893093" rms="0.0e+00"/>
        <Node Cut="0.0e+00" IVar="-1" NCoef="0" cType="1" depth="1" nType="-99" pos="r" purity="0.0e+00" res="-0.0149145816" rms="0.0e+00"/>
      </Node>
    </BinaryTree>
    <BinaryTree boostWeight="1.0e+00" itree="164" type="DecisionTree">
      <Node Cut="-0.893827438" IVar="5" NCoef="0" cType="1" depth="0" nType="0" pos="s" purity="0.0e+00" res="0.0e+00" rms="0.0e+00">
        <Node Cut="0.0e+00" IVar="-1" NCoef="0" cType="1" depth="1" nType="-99" pos="l" purity="0.0e+00" res="0.0239210483" rms="0.0e+00"/>
        <Node Cut="0.0e+00" IVar="-1" NCoef="0" cType="1" depth="1" nType="-99" pos="r" purity="0.0e+00" res="-0.00903641991" rms="0.0e+00"/>
      </Node>
    </BinaryTree>
    <BinaryTree boostWeight="1.0e+00" itree="165" type="DecisionTree">
      <Node Cut="0.0e+00" IVar="-1" NCoef="0" cType="1" depth="0" nType="-99" pos="s" purity="0.0e+00" res="0.00352451997" rms="0.0e+00"/>
    </BinaryTree>
    <BinaryTree boostWeight="1.0e+00" itree="166" type="DecisionTree">
      <Node Cut="-0.110586867" IVar="19" NCoef="0" cType="1" depth="0" nType="0" pos="s" purity="0.0e+00" res="0.0e+00" rms="0.0e+00">
        <Node Cut="-0.0137217361" IVar="11" NCoef="0" cType="1" depth="1" nType="0" pos="l" purity="0.0e+00" res="0.0e+00" rms="0.0e+00">
          <Node Cut="0.0e+00" IVar="-1" NCoef="0" cType="1" depth="2" nType="-99" pos="l" purity="0.0e+00" res="0.0287372563" rms="0.0e+00"/>
          <Node Cut="0.0e+00" IVar="-1" NCoef="0" cType="1" depth="2" nType="-99" pos="r" purity="0.0e+00" res="-0.00665854244" rms="0.0e+00"/>
        </Node>
        <Node Cut="0.0e+00" IVar="-1" NCoef="0" cType="1" depth="1" nType="-99" pos="r" purity="0.0e+00" res="-0.0201500207" rms="0.0e+00"/>
      </Node>
    </BinaryTree>
    <BinaryTree boostWeight="1.0e+00" itree="167" type="DecisionTree">
      <Node Cut="0.0e+00" IVar="-1" NCoef="0" cType="1" depth="0" nType="-99" pos="s" purity="0.0e+00" res="0.00124333659" rms="0.0e+00"/>
    </BinaryTree>
    <BinaryTree boostWeight="1.0e+00" itree="168" type="DecisionTree">
      <Node Cut="0.0e+00" IVar="-1" NCoef="0" cType="1" depth="0" nType="-99" pos="s" purity="0.0e+00" res="0.00127031875" rms="0.0e+00"/>
    </BinaryTree>
    <BinaryTree boostWeight="1.0e+00" itree="169" type="DecisionTree">
      <Node Cut="0.0e+00" IVar="-1" NCoef="0" cType="1" depth="0" nType="-99" pos="s" purity="0.0e+00" res="0.000712692039" rms="0.0e+00"/>
    </BinaryTree>
    <BinaryTree boostWeight="1.0e+00" itree="170" type="DecisionTree">
      <Node Cut="0.0e+00" IVar="-1" NCoef="0" cType="1" depth="0" nType="-99" pos="s" purity="0.0e+00" res="-0.00190641487" rms="0.0e+00"/>
    </BinaryTree>
    <BinaryTree boostWeight="1.0e+00" itree="171" type="DecisionTree">
      <Node Cut="0.0e+00" IVar="-1" NCoef="0" cType="1" depth="0" nType="-99" pos="s" purity="0.0e+00" res="0.000501881528" rms="0.0e+00"/>
    </BinaryTree>
    <BinaryTree boostWeight="1.0e+00" itree="172" type="DecisionTree">
      <Node Cut="0.0e+00" IVar="-1" NCoef="0" cType="1" depth="0" nType="-99" pos="s" purity="0.0e+00" res="-0.00335084531" rms="0.0e+00"/>
    </BinaryTree>
    <BinaryTree boostWeight="1.0e+00" itree="173" type="DecisionTree">
      <Node Cut="0.0e+00" IVar="-1" NCoef="0" cType="1" depth="0" nType="-99" pos="s" purity="0.0e+00" res="-0.000235403291" rms="0.0e+00"/>
    </BinaryTree>
    <BinaryTree boostWeight="1.0e+00" itree="174" type="DecisionTree">
      <Node Cut="0.0e+00" IVar="-1" NCoef="0" cType="1" depth="0" nType="-99" pos="s" purity="0.0e+00" res="-0.00185137743" rms="0.0e+00"/>
    </BinaryTree>
    <BinaryTree boostWeight="1.0e+00" itree="175" type="DecisionTree">
      <Node Cut="0.0e+00" IVar="-1" NCoef="0" cType="1" depth="0" nType="-99" pos="s" purity="0.0e+00" res="-0.00303890975" rms="0.0e+00"/>
    </BinaryTree>
    <BinaryTree boostWeight="1.0e+00" itree="176" type="DecisionTree">
      <Node Cut="-0.430893868" IVar="1" NCoef="0" cType="1" depth="0" nType="0" pos="s" purity="0.0e+00" res="0.0e+00" rms="0.0e+00">
        <Node Cut="0.0e+00" IVar="-1" NCoef="0" cType="1" depth="1" nType="-99" pos="l" purity="0.0e+00" res="0.026438687" rms="0.0e+00"/>
        <Node Cut="0.0e+00" IVar="-1" NCoef="0" cType="1" depth="1" nType="-99" pos="r" purity="0.0e+00" res="-0.00858900603" rms="0.0e+00"/>
      </Node>
    </BinaryTree>
    <BinaryTree boostWeight="1.0e+00" itree="177" type="DecisionTree">
      <Node Cut="0.0e+00" IVar="-1" NCoef="0" cType="1" depth="0" nType="-99" pos="s" purity="0.0e+00" res="0.00264336145" rms="0.0e+00"/>
    </BinaryTree>
    <BinaryTree boostWeight="1.0e+00" itree="178" type="DecisionTree">
      <Node Cut="0.0e+00" IVar="-1" NCoef="0" cType="1" depth="0" nType="-99" pos="s" purity="0.0e+00" res="-0.00126863492" rms="0.0e+00"/>
    </BinaryTree>
    <BinaryTree boostWeight="1.0e+00" itree="179" type="DecisionTree">
      <Node Cut="0.0e+00" IVar="-1" NCoef="0" cType="1" depth="0" nType="-99" pos="s" purity="0.0e+00" res="-0.00323186559" rms="0.0e+00"/>
    </BinaryTree>
    <BinaryTree boostWeight="1.0e+00" itree="180" type="DecisionTree">
      <Node Cut="0.0e+00" IVar="-1" NCoef="0" cType="1" depth="0" nType="-99" pos="s" purity="0.0e+00" res="-0.0048083947" rms="0.0e+00"/>
    </BinaryTree>
    <BinaryTree boostWeight="1.0e+00" itree="181" type="DecisionTree">
      <Node Cut="0.0e+00" IVar="-1" NCoef="0" cType="1" depth="0" nType="-99" pos="s" purity="0.0e+00" res="-0.00167633407" rms="0.0e+00"/>
    </BinaryTree>
    <BinaryTree boostWeight="1.0e+00" itree="182" type="DecisionTree">
      <Node Cut="0.0e+00" IVar="-1" NCoef="0" cType="1" depth="0" nType="-99" pos="s" purity="0.0e+00" res="-0.00554274628" rms="0.0e+00"/>
    </BinaryTree>
    <BinaryTree boostWeight="1.0e+00" itree="183" type="DecisionTree">
      <Node Cut="0.0e+00" IVar="-1" NCoef="0" cType="1" depth="0" nType="-99" pos="s" purity="0.0e+00" res="3.4556735e-05" rms="0.0e+00"/>
    </BinaryTree>
    <BinaryTree boostWeight="1.0e+00" itree="184" type="DecisionTree">
      <Node Cut="0.0e+00" IVar="-1" NCoef="0" cType="1" depth="0" nType="-99" pos="s" purity="0.0e+00" res="-4.3748787e-05" rms="0.0e+00"/>
    </BinaryTree>
    <BinaryTree boostWeight="1.0e+00" itree="185" type="DecisionTree">
      <Node Cut="0.0e+00" IVar="-1" NCoef="0" cType="1" depth="0" nType="-99" pos="s" purity="0.0e+00" res="-0.000714118709" rms="0.0e+00"/>
    </BinaryTree>
    <BinaryTree boostWeight="1.0e+00" itree="186" type="DecisionTree">
      <Node Cut="0.0e+00" IVar="-1" NCoef="0" cType="1" depth="0" nType="-99" pos="s" purity="0.0e+00" res="-0.0024776347" rms="0.0e+00"/>
    </BinaryTree>
    <BinaryTree boostWeight="1.0e+00" itree="187" type="DecisionTree">
      <Node Cut="0.0e+00" IVar="-1" NCoef="0" cType="1" depth="0" nType="-99" pos="s" purity="0.0e+00" res="-0.00167465943" rms="0.0e+00"/>
    </BinaryTree>
    <BinaryTree boostWeight="1.0e+00" itree="188" type="DecisionTree">
      <Node Cut="0.0e+00" IVar="-1" NCoef="0" cType="1" depth="0" nType="-99" pos="s" purity="0.0e+00" res="0.00207925541" rms="0.0e+00"/>
    </BinaryTree>
    <BinaryTree boostWeight="1.0e+00" itree="189" type="DecisionTree">
      <Node Cut="0.0e+00" IVar="-1" NCoef="0" cType="1" depth="0" nType="-99" pos="s" purity="0.0e+00" res="-0.00475540338" rms="0.0e+00"/>
    </BinaryTree>
    <BinaryTree boostWeight="1.0e+00" itree="190" type="DecisionTree">
      <Node Cut="0.0e+00" IVar="-1" NCoef="0" cType="1" depth="0" nType="-99" pos="s" purity="0.0e+00" res="-0.00592707051" rms="0.0e+00"/>
    </BinaryTree>
    <BinaryTree boostWeight="1.0e+00" itree="191" type="DecisionTree">
      <Node Cut="0.0e+00" IVar="-1" NCoef="0" cType="1" depth="0" nType="-99" pos="s" purity="0.0e+00" res="-0.00617726846" rms="0.0e+00"/>
    </BinaryTree>
    <BinaryTree boostWeight="1.0e+00" itree="192" type="DecisionTree">
      <Node Cut="0.0e+00" IVar="-1" NCoef="0" cType="1" depth="0" nType="-99" pos="s" purity="0.0e+00" res="-0.00698979152" rms="0.0e+00"/>
    </BinaryTree>
    <BinaryTree boostWeight="1.0e+00" itree="193" type="DecisionTree">
      <Node Cut="-0.74356854" IVar="27" NCoef="0" cType="1" depth="0" nType="0" pos="s" purity="0.0e+00" res="0.0e+00" rms="0.0e+00">
        <Node Cut="0.0e+00" IVar="-1" NCoef="0" cType="1" depth="1" nType="-99" pos="l" purity="0.0e+00" res="0.0176634192" rms="0.0e+00"/>
        <Node Cut="-0.0254185721" IVar="27" NCoef="0" cType="1" depth="1" nType="0" pos="r" purity="0.0e+00" res="0.0e+00" rms="0.0e+00">
          <Node Cut="0.0e+00" IVar="-1" NCoef="0" cType="1" depth="2" nType="-99" pos="l" purity="0.0e+00" res="-0.0276585519" rms="0.0e+00"/>
          <Node Cut="0.0e+00" IVar="-1" NCoef="0" cType="1" depth="2" nType="-99" pos="r" purity="0.0e+00" res="0.00982195418" rms="0.0e+00"/>
        </Node>
      </Node>
    </BinaryTree>
    <BinaryTree boostWeight="1.0e+00" itree="194" type="DecisionTree">
      <Node Cut="0.0e+00" IVar="-1" NCoef="0" cType="1" depth="0" nType="-99" pos="s" purity="0.0e+00" res="0.00173633348" rms="0.0e+00"/>
    </BinaryTree>
    <BinaryTree boostWeight="1.0e+00" itree="195" type="DecisionTree">
      <Node Cut="0.0e+00" IVar="-1" NCoef="0" cType="1" depth="0" nType="-99" pos="s" purity="0.0e+00" res="0.00233874517" rms="0.0e+00"/>
    </BinaryTree>
    <BinaryTree boostWeight="1.0e+00" itree="196" type="DecisionTree">
      <Node Cut="0.0e+00" IVar="-1" NCoef="0" cType="1" depth="0" nType="-99" pos="s" purity="0.0e+00" res="-0.00188829028" rms="0.0e+00"/>
    </BinaryTree>
    <BinaryTree boostWeight="1.0e+00" itree="197" type="DecisionTree">
      <Node Cut="0.0e+00" IVar="-1" NCoef="0" cType="1" depth="0" nType="-99" pos="s" purity="0.0e+00" res="-0.00337984203" rms="0.0e+00"/>
    </BinaryTree>
    <BinaryTree boostWeight="1.0e+00" itree="198" type="DecisionTree">
      <Node Cut="0.0e+00" IVar="-1" NCoef="0" cType="1" depth="0" nType="-99" pos="s" purity="0.0e+00" res="-0.000285483518" rms="0.0e+00"/>
    </BinaryTree>
    <BinaryTree boostWeight="1.0e+00" itree="199" type="DecisionTree">
      <Node Cut="0.0e+00" IVar="-1" NCoef="0" cType="1" depth="0" nType="-99" pos="s" purity="0.0e+00" res="-0.0031870089" rms="0.0e+00"/>
    </BinaryTree>
    <BinaryTree boostWeight="1.0e+00" itree="200" type="DecisionTree">
      <Node Cut="0.0e+00" IVar="-1" NCoef="0" cType="1" depth="0" nType="-99" pos="s" purity="0.0e+00" res="-0.00494560646" rms="0.0e+00"/>
    </BinaryTree>
    <BinaryTree boostWeight="1.0e+00" itree="201" type="DecisionTree">
      <Node Cut="0.0e+00" IVar="-1" NCoef="0" cType="1" depth="0" nType="-99" pos="s" purity="0.0e+00" res="0.00342586823" rms="0.0e+00"/>
    </BinaryTree>
    <BinaryTree boostWeight="1.0e+00" itree="202" type="DecisionTree">
      <Node Cut="0.0e+00" IVar="-1" NCoef="0" cType="1" depth="0" nType="-99" pos="s" purity="0.0e+00" res="0.00759029621" rms="0.0e+00"/>
    </BinaryTree>
    <BinaryTree boostWeight="1.0e+00" itree="203" type="DecisionTree">
      <Node Cut="0.0e+00" IVar="-1" NCoef="0" cType="1" depth="0" nType="-99" pos="s" purity="0.0e+00" res="-0.0040224269" rms="0.0e+00"/>
    </BinaryTree>
    <BinaryTree boostWeight="1.0e+00" itree="204" type="DecisionTree">
      <Node Cut="0.0e+00" IVar="-1" NCoef="0" cType="1" depth="0" nType="-99" pos="s" purity="0.0e+00" res="-0.00118735188" rms="0.0e+00"/>
    </BinaryTree>
    <BinaryTree boostWeight="1.0e+00" itree="205" type="DecisionTree">
      <Node Cut="0.0e+00" IVar="-1" NCoef="0" cType="1" depth="0" nType="-99" pos="s" purity="0.0e+00" res="-0.00524380943" rms="0.0e+00"/>
    </BinaryTree>
    <BinaryTree boostWeight="1.0e+00" itree="206" type="DecisionTree">
      <Node Cut="0.0e+00" IVar="-1" NCoef="0" cType="1" depth="0" nType="-99" pos="s" purity="0.0e+00" res="0.00139093411" rms="0.0e+00"/>
    </BinaryTree>
    <BinaryTree boostWeight="1.0e+00" itree="207" type="DecisionTree">
      <Node Cut="0.0e+00" IVar="-1" NCoef="0" cType="1" depth="0" nType="-99" pos="s" purity="0.0e+00" res="0.00774574419" rms="0.0e+00"/>
    </BinaryTree>
    <BinaryTree boostWeight="1.0e+00" itree="208" type="DecisionTree">
      <Node Cut="0.0e+00" IVar="-1" NCoef="0" cType="1" depth="0" nType="-99" pos="s" purity="0.0e+00" res="-0.00396959251" rms="0.0e+00"/>
    </BinaryTree>
    <BinaryTree boostWeight="1.0e+00" itree="209" type="DecisionTree">
      <Node Cut="0.0e+00" IVar="-1" NCoef="0" cType="1" depth="0" nType="-99" pos="s" purity="0.0e+00" res="-0.00229660096" rms="0.0e+00"/>
    </BinaryTree>
    <BinaryTree boostWeight="1.0e+00" itree="210" type="DecisionTree">
      <Node Cut="0.0e+00" IVar="-1" NCoef="0" cType="1" depth="0" nType="-99" pos="s" purity="0.0e+00" res="-0.00296343095" rms="0.0e+00"/>
    </BinaryTree>
    <BinaryTree boostWeight="1.0e+00" itree="211" type="DecisionTree">
      <Node Cut="0.0e+00" IVar="-1" NCoef="0" cType="1" depth="0" nType="-99" pos="s" purity="0.0e+00" res="-0.0024878229" rms="0.0e+00"/>
    </BinaryTree>
    <BinaryTree boostWeight="1.0e+00" itree="212" type="DecisionTree">
      <Node Cut="0.0e+00" IVar="-1" NCoef="0" cType="1" depth="0" nType="-99" pos="s" purity="0.0e+00" res="-0.00316576543" rms="0.0e+00"/>
    </BinaryTree>
    <BinaryTree boostWeight="1.0e+00" itree="213" type="DecisionTree">
      <Node Cut="0.0e+00" IVar="-1" NCoef="0" cType="1" depth="0" nType="-99" pos="s" purity="0.0e+00" res="-0.00276729674" rms="0.0e+00"/>
    </BinaryTree>
    <BinaryTree boostWeight="1.0e+00" itree="214" type="DecisionTree">
      <Node Cut="0.0e+00" IVar="-1" NCoef="0" cType="1" depth="0" nType="-99" pos="s" purity="0.0e+00" res="0.00304126577" rms="0.0e+00"/>
    </BinaryTree>
    <BinaryTree boostWeight="1.0e+00" itree="215" type="DecisionTree">
      <Node Cut="0.0e+00" IVar="-1" NCoef="0" cType="1" depth="0" nType="-99" pos="s" purity="0.0e+00" res="0.00170210598" rms="0.0e+00"/>
    </BinaryTree>
